{"learner":{"attributes":{"scikit_learn":"{\"_estimator_type\": \"classifier\"}"},"feature_names":[],"feature_types":[],"gradient_booster":{"model":{"cats":{"enc":[],"feature_segments":[],"sorted_idx":[]},"gbtree_model_param":{"num_parallel_tree":"1","num_trees":"100"},"iteration_indptr":[0,1,2,3,4,5,6,7,8,9,10,11,12,13,14,15,16,17,18,19,20,21,22,23,24,25,26,27,28,29,30,31,32,33,34,35,36,37,38,39,40,41,42,43,44,45,46,47,48,49,50,51,52,53,54,55,56,57,58,59,60,61,62,63,64,65,66,67,68,69,70,71,72,73,74,75,76,77,78,79,80,81,82,83,84,85,86,87,88,89,90,91,92,93,94,95,96,97,98,99,100],"tree_info":[0,0,0,0,0,0,0,0,0,0,0,0,0,0,0,0,0,0,0,0,0,0,0,0,0,0,0,0,0,0,0,0,0,0,0,0,0,0,0,0,0,0,0,0,0,0,0,0,0,0,0,0,0,0,0,0,0,0,0,0,0,0,0,0,0,0,0,0,0,0,0,0,0,0,0,0,0,0,0,0,0,0,0,0,0,0,0,0,0,0,0,0,0,0,0,0,0,0,0,0],"trees":[{"base_weights":[3.306996E-8,-1.0529021E0,7.352788E-1,-1.1022742E0,-6.5825796E-1,-1.1147921E0,1.8355829E0,-1.1585528E-1,-5.2412856E-1,-9.2443734E-2,-1.07987046E-1,-5.496105E-1,-1.2440956E-1,-7.4726874E-1,3.7143156E-1,-9.975E-2,1.4310493E-1,8.758218E-2,-9.205913E-2,-9.061137E-1,1.4310493E-1,1.8464881E-1,-8.94453E-1,7.106691E-2,-3.9679553E-2,-2.3217542E-2,-1.0260736E-1,-7.975992E-2,1.1820912E-1,-7.035977E-2,7.40851E-2,-4.6608012E-2,-1.0913674E-1],"categories":[],"categories_nodes":[],"categories_segments":[],"categories_sizes":[],"default_left":[0,0,0,0,0,0,0,0,0,0,0,0,0,0,0,0,0,0,0,0,0,0,0,0,0,0,0,0,0,0,0,0,0],"id":0,"left_children":[1,3,5,7,9,11,13,-1,15,17,-1,19,-1,21,-1,-1,23,-1,-1,25,27,29,31,-1,-1,-1,-1,-1,-1,-1,-1,-1,-1],"loss_changes":[1.1728679E2,4.8819733E-1,1.8363411E2,1.1460419E0,2.144803E0,1.7928925E0,2.7604126E2,0E0,2.2293115E0,4.9047875E0,0E0,2.130301E0,0E0,3.5319853E0,0E0,0E0,1.3901044E0,0E0,0E0,2.0520544E-1,4.4772596E0,2.5848105E0,1.2938862E0,0E0,0E0,0E0,0E0,0E0,0E0,0E0,0E0,0E0,0E0],"parents":[2147483647,0,0,1,1,2,2,3,3,4,4,5,5,6,6,8,8,9,9,11,11,13,13,16,16,19,19,20,20,21,21,22,22],"right_children":[2,4,6,8,10,12,14,-1,16,18,-1,20,-1,22,-1,-1,24,-1,-1,26,28,30,32,-1,-1,-1,-1,-1,-1,-1,-1,-1,-1],"split_conditions":[5.1E1,8.8E1,5.1E1,8.9E1,6.5E1,6E1,5.1E1,-1.1585528E-1,3.7E1,9.4E1,-1.07987046E-1,4.1E1,-1.2440956E-1,2.5E1,3.7143156E-1,-9.975E-2,4.8E1,8.758218E-2,-9.205913E-2,4.9E1,5.6E1,6.7E1,7.3E1,7.106691E-2,-3.9679553E-2,-2.3217542E-2,-1.0260736E-1,-7.975992E-2,1.1820912E-1,-7.035977E-2,7.40851E-2,-4.6608012E-2,-1.0913674E-1],"split_indices":[1,3,2,4,0,1,0,0,1,3,0,2,0,0,0,0,2,0,0,0,0,1,1,0,0,0,0,0,0,0,0,0,0],"split_type":[0,0,0,0,0,0,0,0,0,0,0,0,0,0,0,0,0,0,0,0,0,0,0,0,0,0,0,0,0,0,0,0,0],"sum_hessian":[1.4949876E2,6.129449E1,8.820427E1,5.2885185E1,8.409306E0,3.288973E1,5.531454E1,4.7278984E1,5.6062036E0,4.111216E0,4.2980895E0,7.101191E0,2.5788536E1,2.3546055E1,3.1768486E1,2.9899752E0,2.6162283E0,1.8687345E0,2.2424815E0,4.484963E0,2.6162283E0,3.1768486E0,2.0369205E1,1.1212407E0,1.4949876E0,1.1212407E0,3.363722E0,1.4949876E0,1.1212407E0,1.1212407E0,2.055608E0,7.474938E0,1.2894268E1],"tree_param":{"num_deleted":"0","num_feature":"5","num_nodes":"33","size_leaf_vector":"1"}},{"base_weights":[-1.12970285E-2,-1.0069155E0,6.283657E-1,-1.0559456E0,-6.238065E-1,-1.0703107E0,1.5120462E0,-1.1125691E-1,-4.9410224E-1,-7.973238E-2,-1.0439034E-1,-5.190813E-1,-1.2012581E-1,-7.0521927E-1,2.8456667E-1,1.6523598E-1,-9.7356915E-2,7.950095E-2,-8.813787E-2,-7.872468E-1,3.1303912E-2,1.646541E-1,-8.4972525E-1,-3.7763212E-2,7.201553E-2,2.3971198E-2,-1.0567973E-1,-6.798685E-2,6.733953E-2,-4.344762E-2,-1.04672864E-1],"categories":[],"categories_nodes":[],"categories_segments":[],"categories_sizes":[],"default_left":[0,0,0,0,0,0,0,0,0,0,0,0,0,0,0,0,0,0,0,0,0,0,0,0,0,0,0,0,0,0,0],"id":1,"left_children":[1,3,5,7,9,11,13,-1,15,17,-1,19,-1,21,-1,23,-1,-1,-1,25,-1,27,29,-1,-1,-1,-1,-1,-1,-1,-1],"loss_changes":[9.62454E1,4.5160675E-1,1.3975018E2,1.0715027E0,2.0081546E0,1.6916924E0,1.8222375E2,0E0,2.204511E0,4.2555914E0,0E0,2.0132873E0,0E0,3.1179342E0,0E0,1.349412E0,0E0,0E0,0E0,1.9896986E0,0E0,2.2677634E0,1.2204733E0,0E0,0E0,0E0,0E0,0E0,0E0,0E0,0E0],"parents":[2147483647,0,0,1,1,2,2,3,3,4,4,5,5,6,6,8,8,9,9,11,11,13,13,15,15,19,19,21,21,22,22],"right_children":[2,4,6,8,10,12,14,-1,16,18,-1,20,-1,22,-1,24,-1,-1,-1,26,-1,28,30,-1,-1,-1,-1,-1,-1,-1,-1],"split_conditions":[5.1E1,8.8E1,5.1E1,8.9E1,9.4E1,6E1,5.1E1,-1.1125691E-1,4.8E1,6.5E1,-1.0439034E-1,7E1,-1.2012581E-1,2.5E1,2.8456667E-1,3.8E1,-9.7356915E-2,7.950095E-2,-8.813787E-2,3.3E1,3.1303912E-2,6.7E1,7.3E1,-3.7763212E-2,7.201553E-2,2.3971198E-2,-1.0567973E-1,-6.798685E-2,6.733953E-2,-4.344762E-2,-1.04672864E-1],"split_indices":[1,3,2,4,3,1,0,0,3,0,0,3,0,0,0,3,0,0,0,4,0,1,1,0,0,0,0,0,0,0,0],"split_type":[0,0,0,0,0,0,0,0,0,0,0,0,0,0,0,0,0,0,0,0,0,0,0,0,0,0,0,0,0,0,0],"sum_hessian":[1.491314E2,5.8110218E1,9.102118E1,4.99601E1,8.150122E0,3.1075104E1,5.9946075E1,4.4495552E1,5.4645457E0,4.0694757E0,4.080646E0,6.917903E0,2.4157202E1,2.2691158E1,3.7254917E1,2.576648E0,2.887898E0,1.9499761E0,2.1194994E0,5.272631E0,1.6452719E0,3.2126637E0,1.9478495E1,1.4639618E0,1.1126862E0,1.1192192E0,4.153412E0,1.0813019E0,2.1313615E0,7.2989645E0,1.2179531E1],"tree_param":{"num_deleted":"0","num_feature":"5","num_nodes":"31","size_leaf_vector":"1"}},{"base_weights":[-1.801439E-2,-9.647527E-1,5.549546E-1,-7.62082E-1,-1.0809724E0,-1.0292877E0,1.3044224E0,-1.0657787E0,-1.3524003E-1,-1.3880831E-2,-1.1060804E-1,-4.8698735E-1,-1.1634053E-1,-6.661768E-1,2.3603915E-1,-2.4340102E-2,-1.1159921E-1,-4.70664E-1,1.1449104E-1,-8.4955025E-1,1.8057811E-1,-8.149008E-1,1.5970117E-1,-7.6692514E-2,5.356859E-2,-9.7987466E-2,-1.6984073E-2,-7.394103E-2,1.09768726E-1,-1.0219675E-1,-4.005074E-2,1.0123036E-1,-5.3101487E-2],"categories":[],"categories_nodes":[],"categories_segments":[],"categories_sizes":[],"default_left":[0,0,0,0,0,0,0,0,0,0,0,0,0,0,0,0,0,0,0,0,0,0,0,0,0,0,0,0,0,0,0,0,0],"id":2,"left_children":[1,3,5,7,9,11,13,15,17,-1,-1,19,-1,21,-1,-1,-1,23,-1,25,27,29,31,-1,-1,-1,-1,-1,-1,-1,-1,-1,-1],"loss_changes":[8.059166E1,4.9543E-1,1.1126022E2,4.387001E0,6.319771E-1,1.6364326E0,1.3326285E2,3.8446426E-1,4.366235E0,0E0,0E0,2.023267E0,0E0,2.9380121E0,0E0,0E0,0E0,2.7278466E0,0E0,2.925942E-1,3.8016431E0,1.2669868E0,3.0843313E0,0E0,0E0,0E0,0E0,0E0,0E0,0E0,0E0,0E0,0E0],"parents":[2147483647,0,0,1,1,2,2,3,3,4,4,5,5,6,6,7,7,8,8,11,11,13,13,17,17,19,19,20,20,21,21,22,22],"right_children":[2,4,6,8,10,12,14,16,18,-1,-1,20,-1,22,-1,-1,-1,24,-1,26,28,30,32,-1,-1,-1,-1,-1,-1,-1,-1,-1,-1],"split_conditions":[5.1E1,5.7E1,5.1E1,4.5E1,2.3E1,6E1,5.1E1,2.6E1,8.5E1,-1.3880831E-2,-1.1060804E-1,4.1E1,-1.1634053E-1,9E1,2.3603915E-1,-2.4340102E-2,-1.1159921E-1,4.4E1,1.1449104E-1,7.6E1,5.6E1,7.4E1,9.2E1,-7.6692514E-2,5.356859E-2,-9.7987466E-2,-1.6984073E-2,-7.394103E-2,1.09768726E-1,-1.0219675E-1,-4.005074E-2,1.0123036E-1,-5.3101487E-2],"split_indices":[1,0,2,0,3,1,0,2,3,0,0,2,0,2,0,0,0,1,0,4,0,3,2,0,0,0,0,0,0,0,0,0,0],"split_type":[0,0,0,0,0,0,0,0,0,0,0,0,0,0,0,0,0,0,0,0,0,0,0,0,0,0,0,0,0,0,0,0,0],"sum_hessian":[1.4658229E2,5.500752E1,9.1574776E1,2.280176E1,3.220576E1,2.928921E1,6.2285564E1,1.4888327E1,7.9134336E0,1.0054451E0,3.1200314E1,6.725581E0,2.256363E1,2.1860212E1,4.0425354E1,1.1932374E0,1.3695089E1,6.771506E0,1.1419275E0,4.1817904E0,2.5437908E0,1.8535612E1,3.3245988E0,5.4152226E0,1.3562834E0,3.1384335E0,1.0433569E0,1.36663E0,1.1771607E0,1.1382004E1,7.1536098E0,1.2795584E0,2.0450404E0],"tree_param":{"num_deleted":"0","num_feature":"5","num_nodes":"33","size_leaf_vector":"1"}},{"base_weights":[-2.1868829E-2,-9.241561E-1,5.0002074E-1,-7.214884E-1,-1.0424238E0,-9.924236E-1,1.1576846E0,-1.0286711E0,-1.1470787E-1,-2.8034179E-2,-1.0663428E-1,-5.4869527E-1,-1.16797365E-1,-6.2736666E-1,2.0462143E0,-2.3196328E-2,-1.0797473E-1,-4.5831695E-1,1.256231E-1,-9.2743933E-1,2.0610976E-1,1.9065931E-1,-7.7370346E-1,2.0857182E-1,8.1442535E-2,-7.4602805E-2,4.9580123E-2,-1.4567736E-2,-1.0382449E-1,8.908464E-2,-7.2167456E-2,-3.7241302E-2,6.309836E-2,-3.6641672E-2,-9.779359E-2],"categories":[],"categories_nodes":[],"categories_segments":[],"categories_sizes":[],"default_left":[0,0,0,0,0,0,0,0,0,0,0,0,0,0,0,0,0,0,0,0,0,0,0,0,0,0,0,0,0,0,0,0,0,0,0],"id":3,"left_children":[1,3,5,7,9,11,13,15,17,-1,-1,19,-1,21,23,-1,-1,25,-1,27,29,31,33,-1,-1,-1,-1,-1,-1,-1,-1,-1,-1,-1,-1],"loss_changes":[6.810495E1,5.180435E-1,9.1112564E1,4.1272182E0,2.7005386E-1,1.5849495E0,1.029238E2,3.597374E-1,4.7119107E0,0E0,0E0,3.0459397E0,0E0,2.7885513E0,3.947296E-1,0E0,0E0,2.4982786E0,0E0,4.4050217E-1,3.2823505E0,1.2639526E0,1.2148151E0,0E0,0E0,0E0,0E0,0E0,0E0,0E0,0E0,0E0,0E0,0E0,0E0],"parents":[2147483647,0,0,1,1,2,2,3,3,4,4,5,5,6,6,7,7,8,8,11,11,13,13,14,14,17,17,19,19,20,20,21,21,22,22],"right_children":[2,4,6,8,10,12,14,16,18,-1,-1,20,-1,22,24,-1,-1,26,-1,28,30,32,34,-1,-1,-1,-1,-1,-1,-1,-1,-1,-1,-1,-1],"split_conditions":[5.1E1,5.7E1,5.1E1,4.5E1,2.4E1,6.6E1,5.1E1,2.6E1,8.8E1,-2.8034179E-2,-1.0663428E-1,4.1E1,-1.16797365E-1,2.5E1,9.4E1,-2.3196328E-2,-1.0797473E-1,4.4E1,1.256231E-1,4.2E1,4.7E1,2.2E1,7.3E1,2.0857182E-1,8.1442535E-2,-7.4602805E-2,4.9580123E-2,-1.4567736E-2,-1.0382449E-1,8.908464E-2,-7.2167456E-2,-3.7241302E-2,6.309836E-2,-3.6641672E-2,-9.779359E-2],"split_indices":[1,0,2,0,3,1,0,2,3,0,0,2,0,0,4,0,0,1,0,0,2,0,1,0,0,0,0,0,0,0,0,0,0,0,0],"split_type":[0,0,0,0,0,0,0,0,0,0,0,0,0,0,0,0,0,0,0,0,0,0,0,0,0,0,0,0,0,0,0,0,0,0,0],"sum_hessian":[1.4264763E2,5.1990765E1,9.065687E1,2.1775675E1,3.021509E1,2.7573956E1,6.3082912E1,1.3995272E1,7.780403E0,1.3065804E0,2.890851E1,8.986031E0,1.8587925E1,2.1062466E1,4.2020447E1,1.1770253E0,1.2818246E1,6.75343E0,1.0269734E0,5.831301E0,3.154729E0,3.1501539E0,1.7912312E1,4.0043015E1,1.9774328E0,5.3563404E0,1.3970894E0,1.0112661E0,4.8200355E0,1.8380202E0,1.3167088E0,1.4500753E0,1.7000786E0,6.9154396E0,1.0996872E1],"tree_param":{"num_deleted":"0","num_feature":"5","num_nodes":"35","size_leaf_vector":"1"}},{"base_weights":[-2.4399618E-2,-8.8624954E-1,4.569853E-1,-6.61075E-1,-9.988964E-1,-9.587935E-1,1.0479444E0,-7.5846493E-1,9.8572336E-2,-1.0596718E0,-5.8229595E-1,-5.2070546E-1,-1.1392981E-1,-5.916074E-1,1.8268749E0,-8.3141637E-1,-2.3442376E-3,7.917758E-2,-6.366736E-2,-1.0917023E0,-2.5475904E-2,-8.1739813E-1,3.0503584E-2,-8.942396E-1,1.8711253E-1,-7.4316615E-1,1.9629571E-1,1.8599999E-1,7.565977E-2,-2.7876133E-2,-9.085824E-2,-2.473348E-2,-1.1258608E-1,-1.5250677E-2,-9.397768E-2,-1.3895862E-2,-1.0062283E-1,8.091612E-2,-6.980202E-2,-3.1118E-2,-9.724466E-2,9.397829E-2,-4.705828E-2],"categories":[],"categories_nodes":[],"categories_segments":[],"categories_sizes":[],"default_left":[0,0,0,0,0,0,0,0,0,0,0,0,0,0,0,0,0,0,0,0,0,0,0,0,0,0,0,0,0,0,0,0,0,0,0,0,0,0,0,0,0,0,0],"id":4,"left_children":[1,3,5,7,9,11,13,15,17,19,21,23,-1,25,27,29,-1,-1,-1,31,-1,33,-1,35,37,39,41,-1,-1,-1,-1,-1,-1,-1,-1,-1,-1,-1,-1,-1,-1,-1,-1],"loss_changes":[5.8007145E1,6.103859E-1,7.608952E1,1.5293884E0,1.7887306E-1,1.5379105E0,8.254983E1,9.211607E-1,2.093918E0,3.977108E-1,1.5473027E0,2.7334871E0,0E0,2.689539E0,1.3459778E-1,4.2606354E-1,0E0,0E0,0E0,4.3988037E-1,0E0,2.7901387E-1,0E0,4.121771E-1,2.8661196E0,1.4875288E0,2.538297E0,0E0,0E0,0E0,0E0,0E0,0E0,0E0,0E0,0E0,0E0,0E0,0E0,0E0,0E0,0E0,0E0],"parents":[2147483647,0,0,1,1,2,2,3,3,4,4,5,5,6,6,7,7,8,8,9,9,10,10,11,11,13,13,14,14,15,15,19,19,21,21,23,23,24,24,25,25,26,26],"right_children":[2,4,6,8,10,12,14,16,18,20,22,24,-1,26,28,30,-1,-1,-1,32,-1,34,-1,36,38,40,42,-1,-1,-1,-1,-1,-1,-1,-1,-1,-1,-1,-1,-1,-1,-1,-1],"split_conditions":[5.1E1,4.9E1,5.1E1,8.7E1,8.8E1,6.6E1,5.1E1,9E1,5.6E1,9.7E1,4.2E1,4.1E1,-1.1392981E-1,9E1,9.4E1,3.2E1,-2.3442376E-3,7.917758E-2,-6.366736E-2,2.4E1,-2.5475904E-2,5.8E1,3.0503584E-2,4.2E1,4.7E1,6.7E1,9.2E1,1.8599999E-1,7.565977E-2,-2.7876133E-2,-9.085824E-2,-2.473348E-2,-1.1258608E-1,-1.5250677E-2,-9.397768E-2,-1.3895862E-2,-1.0062283E-1,8.091612E-2,-6.980202E-2,-3.1118E-2,-9.724466E-2,9.397829E-2,-4.705828E-2],"split_indices":[1,2,2,4,3,1,0,3,3,0,1,2,0,2,4,0,0,0,0,3,0,2,0,0,2,2,2,0,0,0,0,0,0,0,0,0,0,0,0,0,0,0,0],"split_type":[0,0,0,0,0,0,0,0,0,0,0,0,0,0,0,0,0,0,0,0,0,0,0,0,0,0,0,0,0,0,0,0,0,0,0,0,0,0,0,0,0,0,0],"sum_hessian":[1.3783998E2,4.9097313E1,8.874266E1,1.8661875E1,3.0435436E1,2.59503E1,6.2792362E1,1.6542603E1,2.119273E0,2.5213566E1,5.2218695E0,8.705825E0,1.7244474E1,2.0301247E1,4.2491116E1,1.4929679E1,1.612924E0,1.0512497E0,1.0680233E0,2.3905956E1,1.307611E0,4.1904154E0,1.0314543E0,5.526153E0,3.1796718E0,1.7073767E1,3.2274811E0,4.049978E1,1.9913381E0,2.3943172E0,1.2535361E1,1.249914E0,2.2656042E1,1.0005498E0,3.1898656E0,1.0029335E0,4.5232196E0,1.9177539E0,1.2619177E0,6.737284E0,1.0336482E1,1.3325858E0,1.8948953E0],"tree_param":{"num_deleted":"0","num_feature":"5","num_nodes":"43","size_leaf_vector":"1"}},{"base_weights":[-2.7514352E-2,-8.513868E-1,4.2183164E-1,-6.422233E-1,-9.7744256E-1,-9.277623E-1,9.613405E-1,-9.6748877E-1,-3.7986454E-2,-2.4012571E-2,-1.0029225E0,-4.9522448E-1,-1.11351825E-1,-5.564892E-1,1.6630365E0,-1.9194497E-2,-1.0222214E0,-3.7652194E-1,1.1572745E-1,-3.323376E-2,-1.0306157E0,-8.6309487E-1,1.692269E-1,2.2232494E-1,-7.059562E-1,1.6924562E0,7.0446044E-2,-4.112303E-2,-1.08706795E-1,-6.724077E-2,5.101672E-2,-2.7124703E-2,-1.06333375E-1,-9.844281E-2,-1.2203474E-2,7.37253E-2,-6.756386E-2,-3.1269763E-2,6.0352426E-2,-8.865912E-2,-2.3611747E-2,1.7564307E-1,9.8772824E-2],"categories":[],"categories_nodes":[],"categories_segments":[],"categories_sizes":[],"default_left":[0,0,0,0,0,0,0,0,0,0,0,0,0,0,0,0,0,0,0,0,0,0,0,0,0,0,0,0,0,0,0,0,0,0,0,0,0,0,0,0,0,0,0],"id":5,"left_children":[1,3,5,7,9,11,13,15,17,-1,19,21,-1,23,25,-1,27,29,-1,-1,31,33,35,37,39,41,-1,-1,-1,-1,-1,-1,-1,-1,-1,-1,-1,-1,-1,-1,-1,-1,-1],"loss_changes":[4.9840572E1,6.247368E-1,6.435262E1,4.0470524E0,2.8001404E-1,1.4893703E0,6.776522E1,3.754177E-1,3.7991273E0,0E0,1.4929962E-1,2.4515383E0,0E0,2.5537415E0,2.5093079E-2,0E0,4.2191505E-2,2.2404127E0,0E0,0E0,3.316288E-1,4.404688E-1,2.5123682E0,1.0199707E0,1.2770596E0,1.2120819E-1,0E0,0E0,0E0,0E0,0E0,0E0,0E0,0E0,0E0,0E0,0E0,0E0,0E0,0E0,0E0,0E0,0E0],"parents":[2147483647,0,0,1,1,2,2,3,3,4,4,5,5,6,6,7,7,8,8,10,10,11,11,13,13,14,14,16,16,17,17,20,20,21,21,22,22,23,23,24,24,25,25],"right_children":[2,4,6,8,10,12,14,16,18,-1,20,22,-1,24,26,-1,28,30,-1,-1,32,34,36,38,40,42,-1,-1,-1,-1,-1,-1,-1,-1,-1,-1,-1,-1,-1,-1,-1,-1,-1],"split_conditions":[5.1E1,5.7E1,5.1E1,4.5E1,2.4E1,6.6E1,5.1E1,2.6E1,8.8E1,-2.4012571E-2,2.4E1,4.1E1,-1.11351825E-1,2.5E1,9.4E1,-1.9194497E-2,2.4E1,4.4E1,1.1572745E-1,-3.323376E-2,2.2E1,8.7E1,4.7E1,2.2E1,7.5E1,9.3E1,7.0446044E-2,-4.112303E-2,-1.08706795E-1,-6.724077E-2,5.101672E-2,-2.7124703E-2,-1.06333375E-1,-9.844281E-2,-1.2203474E-2,7.37253E-2,-6.756386E-2,-3.1269763E-2,6.0352426E-2,-8.865912E-2,-2.3611747E-2,1.7564307E-1,9.8772824E-2],"split_indices":[1,0,2,0,3,1,0,2,3,0,4,2,0,0,4,0,1,1,0,0,1,3,2,0,4,2,0,0,0,0,0,0,0,0,0,0,0,0,0,0,0,0,0],"split_type":[0,0,0,0,0,0,0,0,0,0,0,0,0,0,0,0,0,0,0,0,0,0,0,0,0,0,0,0,0,0,0,0,0,0,0,0,0,0,0,0,0,0,0],"sum_hessian":[1.3265997E2,4.6502773E1,8.61572E1,1.9778765E1,2.6724009E1,2.4400114E1,6.175709E1,1.2466679E1,7.312086E0,1.2408705E0,2.5483139E1,8.431987E0,1.5968127E1,1.958973E1,4.2167362E1,1.1189195E0,1.1347759E1,6.231981E0,1.0801053E0,1.5262378E0,2.39569E1,5.2348037E0,3.1971834E0,3.0757496E0,1.6513979E1,4.0168938E1,1.9984243E0,1.7932407E0,9.554519E0,4.8539095E0,1.3780712E0,1.3733225E0,2.2583578E1,4.2161E0,1.0187035E0,1.9879817E0,1.2092017E0,1.3544486E0,1.7213012E0,1.1287397E1,5.226582E0,3.5457767E1,4.7111716E0],"tree_param":{"num_deleted":"0","num_feature":"5","num_nodes":"43","size_leaf_vector":"1"}},{"base_weights":[-2.892988E-2,-8.180774E-1,3.932236E-1,-5.831428E-1,-9.3966955E-1,-8.986689E-1,8.9196837E-1,-6.8448955E-1,1.4177914E-2,-9.642777E-1,-2.6254296E-2,-4.716385E-1,-1.0901034E-1,-5.2348644E-1,1.5374228E-1,-7.607236E-1,1.8465912E-3,-1.038171E0,-5.090585E-1,-8.329706E-1,1.5241699E-1,-6.775407E-1,2.2811763E-1,-2.201328E-2,-8.422621E-2,-2.1173175E-2,-1.075287E-1,-7.489159E-2,2.9516498E-2,-9.557472E-2,-1.1635642E-2,6.735411E-2,-6.544075E-2,-2.5281876E-2,-9.1451116E-2,7.150562E-2,-6.2322415E-2],"categories":[],"categories_nodes":[],"categories_segments":[],"categories_sizes":[],"default_left":[0,0,0,0,0,0,0,0,0,0,0,0,0,0,0,0,0,0,0,0,0,0,0,0,0,0,0,0,0,0,0,0,0,0,0,0,0],"id":6,"left_children":[1,3,5,7,9,11,13,15,-1,17,-1,19,-1,21,-1,23,-1,25,27,29,31,33,35,-1,-1,-1,-1,-1,-1,-1,-1,-1,-1,-1,-1,-1,-1],"loss_changes":[4.300341E1,7.368221E-1,5.5017166E1,1.4175992E0,2.1341705E-1,1.4424706E0,5.672588E1,8.683305E-1,0E0,3.6779213E-1,0E0,2.1949577E0,0E0,2.4605794E0,0E0,4.4956398E-1,0E0,4.459877E-1,1.3173451E0,4.1342068E-1,2.2101612E0,1.4576502E0,2.1601646E0,0E0,0E0,0E0,0E0,0E0,0E0,0E0,0E0,0E0,0E0,0E0,0E0,0E0,0E0],"parents":[2147483647,0,0,1,1,2,2,3,3,4,4,5,5,6,6,7,7,9,9,11,11,13,13,15,15,17,17,18,18,19,19,20,20,21,21,22,22],"right_children":[2,4,6,8,10,12,14,16,-1,18,-1,20,-1,22,-1,24,-1,26,28,30,32,34,36,-1,-1,-1,-1,-1,-1,-1,-1,-1,-1,-1,-1,-1,-1],"split_conditions":[5.1E1,4.9E1,5.1E1,8.7E1,9.7E1,6.6E1,5.1E1,9E1,1.4177914E-2,8.8E1,-2.6254296E-2,4.1E1,-1.0901034E-1,9E1,1.5374228E-1,3.2E1,1.8465912E-3,2.4E1,4.1E1,8.7E1,4.7E1,6.7E1,9.4E1,-2.201328E-2,-8.422621E-2,-2.1173175E-2,-1.075287E-1,-7.489159E-2,2.9516498E-2,-9.557472E-2,-1.1635642E-2,6.735411E-2,-6.544075E-2,-2.5281876E-2,-9.1451116E-2,7.150562E-2,-6.2322415E-2],"split_indices":[1,2,2,4,0,1,0,3,0,3,0,2,0,2,0,0,0,3,1,3,2,2,2,0,0,0,0,0,0,0,0,0,0,0,0,0,0],"split_type":[0,0,0,0,0,0,0,0,0,0,0,0,0,0,0,0,0,0,0,0,0,0,0,0,0,0,0,0,0,0,0,0,0,0,0,0,0],"sum_hessian":[1.2711895E2,4.397568E1,8.314327E1,1.6974419E1,2.7001263E1,2.2934488E1,6.0208786E1,1.494134E1,2.0330787E0,2.5645191E1,1.3560708E0,8.17108E0,1.4763408E1,1.891592E1,4.1292862E1,1.3405376E1,1.5359637E0,2.096195E1,4.683241E0,4.9628105E0,3.2082694E0,1.5780064E1,3.1358578E0,2.241858E0,1.1163519E1,1.1891183E0,1.9772833E1,3.660329E0,1.0229118E0,3.9520185E0,1.0107921E0,2.0496228E0,1.1586468E0,6.391485E0,9.388577E0,2.0967E0,1.0391579E0],"tree_param":{"num_deleted":"0","num_feature":"5","num_nodes":"37","size_leaf_vector":"1"}},{"base_weights":[-3.2013588E-2,-7.8540426E-1,3.6581716E-1,-5.5131656E-1,-9.094936E-1,-8.713412E-1,8.297727E-1,-6.5157264E-1,1.3149898E-2,-9.750141E-1,-4.9751124E-1,-4.5000064E-1,-1.0686215E-1,-4.9303752E-1,1.4320331E0,-7.277105E-1,1.7335523E-3,-1.0113205E0,-1.9304024E-2,-7.318836E-1,2.7812555E-2,-8.0440736E-1,1.366363E-1,2.4894266E-1,-6.450489E-1,1.4622312E0,5.5751573E-2,-2.0707792E-2,-8.095478E-2,-2.0175982E-2,-1.0500397E-1,-1.7631428E-2,-8.4859245E-2,-9.287745E-2,-1.1094443E-2,6.167614E-2,-6.3422345E-2,-2.6999513E-2,5.9124917E-2,-2.1566622E-2,-8.7937064E-2,1.5247446E-1,8.0801524E-2],"categories":[],"categories_nodes":[],"categories_segments":[],"categories_sizes":[],"default_left":[0,0,0,0,0,0,0,0,0,0,0,0,0,0,0,0,0,0,0,0,0,0,0,0,0,0,0,0,0,0,0,0,0,0,0,0,0,0,0,0,0,0,0],"id":7,"left_children":[1,3,5,7,9,11,13,15,-1,17,19,21,-1,23,25,27,-1,29,-1,31,-1,33,35,37,39,41,-1,-1,-1,-1,-1,-1,-1,-1,-1,-1,-1,-1,-1,-1,-1,-1,-1],"loss_changes":[3.7025425E1,7.3822594E-1,4.715736E1,1.2716336E0,2.2624016E-1,1.3936577E0,4.7985905E1,7.9051447E-1,0E0,4.20681E-1,1.2320672E0,1.9642864E0,0E0,2.3385963E0,2.684784E-1,4.1763258E-1,0E0,4.3058968E-1,0E0,1.4995742E-1,0E0,3.8900924E-1,1.9507556E0,8.7107027E-1,1.4508996E0,3.65036E-1,0E0,0E0,0E0,0E0,0E0,0E0,0E0,0E0,0E0,0E0,0E0,0E0,0E0,0E0,0E0,0E0,0E0],"parents":[2147483647,0,0,1,1,2,2,3,3,4,4,5,5,6,6,7,7,9,9,10,10,11,11,13,13,14,14,15,15,17,17,19,19,21,21,22,22,23,23,24,24,25,25],"right_children":[2,4,6,8,10,12,14,16,-1,18,20,22,-1,24,26,28,-1,30,-1,32,-1,34,36,38,40,42,-1,-1,-1,-1,-1,-1,-1,-1,-1,-1,-1,-1,-1,-1,-1,-1,-1],"split_conditions":[5.1E1,4.9E1,5.1E1,8.7E1,8.8E1,6.6E1,5.1E1,9E1,1.3149898E-2,9.7E1,4.2E1,4.1E1,-1.0686215E-1,2.5E1,9.4E1,3.2E1,1.7335523E-3,2.4E1,-1.9304024E-2,6.4E1,2.7812555E-2,8.7E1,4.7E1,7.4E1,7.3E1,9.3E1,5.5751573E-2,-2.0707792E-2,-8.095478E-2,-2.0175982E-2,-1.0500397E-1,-1.7631428E-2,-8.4859245E-2,-9.287745E-2,-1.1094443E-2,6.167614E-2,-6.3422345E-2,-2.6999513E-2,5.9124917E-2,-2.1566622E-2,-8.7937064E-2,1.5247446E-1,8.0801524E-2],"split_indices":[1,2,2,4,3,1,0,3,0,0,1,2,0,0,4,0,0,3,0,2,0,3,2,1,1,2,0,0,0,0,0,0,0,0,0,0,0,0,0,0,0,0,0],"split_type":[0,0,0,0,0,0,0,0,0,0,0,0,0,0,0,0,0,0,0,0,0,0,0,0,0,0,0,0,0,0,0,0,0,0,0,0,0,0,0,0,0,0,0],"sum_hessian":[1.2157397E2,4.1675987E1,7.989798E1,1.6324196E1,2.5351791E1,2.15516E1,5.8346382E1,1.4274118E1,2.0500767E0,2.0694033E1,4.657759E0,7.9192066E0,1.3632393E1,1.8310465E1,4.0035915E1,1.2736491E1,1.537627E0,1.9495579E1,1.1984544E0,3.6202471E0,1.0375121E0,4.7053385E0,3.2138684E0,3.0050256E0,1.5305439E1,3.804997E1,1.9859478E0,2.2096298E0,1.0526862E1,1.1733541E0,1.8322224E1,1.064348E0,2.5558991E0,3.7020729E0,1.0032657E0,2.1035748E0,1.1102936E0,1.2783263E0,1.7266994E0,6.0816E0,9.223839E0,3.351664E1,4.533327E0],"tree_param":{"num_deleted":"0","num_feature":"5","num_nodes":"43","size_leaf_vector":"1"}},{"base_weights":[-3.359182E-2,-7.5432444E-1,3.4389713E-1,-5.307585E-1,-8.9578253E-1,-8.454703E-1,7.795989E-1,-8.9301115E-1,9.364356E-2,-9.5235336E-1,-3.6156735E-1,-4.300748E-1,-1.0487157E-1,-4.6348587E-1,1.3485208E0,-1.328288E-2,-9.547748E-1,-2.4494083E-1,1.083393E-1,-2.3391359E-2,-9.8939914E-1,3.686674E-2,-7.6325685E-2,-7.7718276E-1,1.218344E-1,-3.545599E-2,-7.392595E-1,1.3780705E0,5.2241772E-2,-3.368609E-2,-1.0278209E-1,-5.6508433E-2,5.7890546E-2,-1.3474628E-2,-1.03379205E-1,-1.5172161E-2,-8.9877926E-2,-4.5414034E-2,7.1688995E-2,-8.182211E-2,3.4583043E-2,-2.404468E-2,-9.123861E-2,1.4392005E-1,7.539253E-2],"categories":[],"categories_nodes":[],"categories_segments":[],"categories_sizes":[],"default_left":[0,0,0,0,0,0,0,0,0,0,0,0,0,0,0,0,0,0,0,0,0,0,0,0,0,0,0,0,0,0,0,0,0,0,0,0,0,0,0,0,0,0,0,0,0],"id":8,"left_children":[1,3,5,7,9,11,13,15,17,19,21,23,-1,25,27,-1,29,31,-1,-1,33,-1,-1,35,37,39,41,43,-1,-1,-1,-1,-1,-1,-1,-1,-1,-1,-1,-1,-1,-1,-1,-1,-1],"loss_changes":[3.2094833E1,8.0643654E-1,4.080944E1,4.1917195E0,3.61969E-1,1.3432894E0,4.1096367E1,4.1728783E-1,2.8032928E0,3.1475258E-1,1.4106853E0,1.7570533E0,0E0,2.1825051E0,2.4465942E-1,0E0,1.3023853E-1,2.0305624E0,0E0,0E0,5.893707E-1,0E0,0E0,2.7909207E-1,1.7701488E0,2.7847104E0,7.5900507E-1,3.4722137E-1,0E0,0E0,0E0,0E0,0E0,0E0,0E0,0E0,0E0,0E0,0E0,0E0,0E0,0E0,0E0,0E0,0E0],"parents":[2147483647,0,0,1,1,2,2,3,3,4,4,5,5,6,6,7,7,8,8,9,9,10,10,11,11,13,13,14,14,16,16,17,17,20,20,23,23,24,24,25,25,26,26,27,27],"right_children":[2,4,6,8,10,12,14,16,18,20,22,24,-1,26,28,-1,30,32,-1,-1,34,-1,-1,36,38,40,42,44,-1,-1,-1,-1,-1,-1,-1,-1,-1,-1,-1,-1,-1,-1,-1,-1,-1],"split_conditions":[5.1E1,5.7E1,5.1E1,4.5E1,8.9E1,6.6E1,5.1E1,2.6E1,8.8E1,2.4E1,5.9E1,4.1E1,-1.0487157E-1,3.1E1,9.4E1,-1.328288E-2,2.4E1,4.4E1,1.083393E-1,-2.3391359E-2,2.2E1,3.686674E-2,-7.6325685E-2,4.7E1,5.6E1,6.7E1,6.9E1,9.3E1,5.2241772E-2,-3.368609E-2,-1.0278209E-1,-5.6508433E-2,5.7890546E-2,-1.3474628E-2,-1.03379205E-1,-1.5172161E-2,-8.9877926E-2,-4.5414034E-2,7.1688995E-2,-8.182211E-2,3.4583043E-2,-2.404468E-2,-9.123861E-2,1.4392005E-1,7.539253E-2],"split_indices":[1,0,2,0,4,1,0,2,3,4,3,2,0,0,4,0,1,1,0,0,1,0,0,0,0,1,1,2,0,0,0,0,0,0,0,0,0,0,0,0,0,0,0,0,0],"split_type":[0,0,0,0,0,0,0,0,0,0,0,0,0,0,0,0,0,0,0,0,0,0,0,0,0,0,0,0,0,0,0,0,0,0,0,0,0,0,0,0,0,0,0,0,0],"sum_hessian":[1.1601248E2,3.9533546E1,7.647893E1,1.7162039E1,2.237151E1,2.025282E1,5.6226112E1,1.0588712E1,6.573326E0,1.9521557E1,2.8499527E0,7.6774945E0,1.2575325E1,1.7711693E1,3.851442E1,1.0324159E0,9.556296E0,5.4585333E0,1.114793E0,1.3159097E0,1.8205647E1,1.0405451E0,1.8094077E0,4.4626584E0,3.2148364E0,7.3822412E0,1.0329451E1,3.6539253E1,1.9751667E0,1.6035053E0,7.9527907E0,4.157165E0,1.3013682E0,1.0982085E0,1.7107437E1,1.0922341E0,3.3704243E0,1.7539439E0,1.4608924E0,2.042705E0,5.339536E0,3.276897E0,7.0525537E0,3.209038E1,4.44887E0],"tree_param":{"num_deleted":"0","num_feature":"5","num_nodes":"45","size_leaf_vector":"1"}},{"base_weights":[-3.5119638E-2,-7.24279E-1,3.2300404E-1,-4.788653E-1,-8.59411E-1,-8.196638E-1,7.329096E-1,-5.813794E-1,1.5566525E-2,-8.8691926E-1,-2.0235645E-2,-4.0866756E-1,-1.0300886E-1,-4.3865934E-1,1.2779926E0,-3.046957E-1,-8.395087E-1,-9.678907E-1,-4.3368575E-1,-7.513125E-1,1.15703106E-1,-5.9567493E-1,2.626358E-1,1.3074493E0,4.8994914E-2,-8.101476E-2,4.151609E-3,-9.076812E-3,-9.567591E-2,-1.6575396E-2,-1.0106205E-1,9.693856E-3,-7.9535596E-2,-8.789912E-2,-1.2290651E-2,5.531615E-2,-6.1166912E-2,-1.5526093E-2,-8.540615E-2,8.448386E-2,-3.644417E-2,1.3685106E-1,7.045389E-2],"categories":[],"categories_nodes":[],"categories_segments":[],"categories_sizes":[],"default_left":[0,0,0,0,0,0,0,0,0,0,0,0,0,0,0,0,0,0,0,0,0,0,0,0,0,0,0,0,0,0,0,0,0,0,0,0,0,0,0,0,0,0,0],"id":9,"left_children":[1,3,5,7,9,11,13,15,-1,17,-1,19,-1,21,23,25,27,29,31,33,35,37,39,41,-1,-1,-1,-1,-1,-1,-1,-1,-1,-1,-1,-1,-1,-1,-1,-1,-1,-1,-1],"loss_changes":[2.7760868E1,8.6351395E-1,3.5301384E1,1.1254983E0,2.4593544E-1,1.311471E0,3.5718002E1,7.376137E-1,0E0,3.9845276E-1,0E0,1.6035146E0,0E0,2.1633313E0,2.3753738E-1,1.4831257E0,4.9487448E-1,4.5300484E-1,1.0733497E0,3.1226802E-1,1.6755227E0,1.5968151E0,1.7784977E0,3.562088E-1,0E0,0E0,0E0,0E0,0E0,0E0,0E0,0E0,0E0,0E0,0E0,0E0,0E0,0E0,0E0,0E0,0E0,0E0,0E0],"parents":[2147483647,0,0,1,1,2,2,3,3,4,4,5,5,6,6,7,7,9,9,11,11,13,13,14,14,15,15,16,16,17,17,18,18,19,19,20,20,21,21,22,22,23,23],"right_children":[2,4,6,8,10,12,14,16,-1,18,-1,20,-1,22,24,26,28,30,32,34,36,38,40,42,-1,-1,-1,-1,-1,-1,-1,-1,-1,-1,-1,-1,-1,-1,-1,-1,-1,-1,-1],"split_conditions":[5.1E1,4.9E1,5.1E1,8.7E1,9.7E1,6.6E1,5.1E1,5.8E1,1.5566525E-2,8.8E1,-2.0235645E-2,4.1E1,-1.0300886E-1,9E1,9.4E1,5E1,2.8E1,2.4E1,5.7E1,8.6E1,4.7E1,6.7E1,9.2E1,9.3E1,4.8994914E-2,-8.101476E-2,4.151609E-3,-9.076812E-3,-9.567591E-2,-1.6575396E-2,-1.0106205E-1,9.693856E-3,-7.9535596E-2,-8.789912E-2,-1.2290651E-2,5.531615E-2,-6.1166912E-2,-1.5526093E-2,-8.540615E-2,8.448386E-2,-3.644417E-2,1.3685106E-1,7.045389E-2],"split_indices":[1,2,2,4,0,1,0,4,0,3,0,2,0,2,4,3,3,3,0,3,2,2,2,2,0,0,0,0,0,0,0,0,0,0,0,0,0,0,0,0,0,0,0],"split_type":[0,0,0,0,0,0,0,0,0,0,0,0,0,0,0,0,0,0,0,0,0,0,0,0,0,0,0,0,0,0,0,0,0,0,0,0,0,0,0,0,0,0,0],"sum_hessian":[1.1053342E2,3.744783E1,7.308559E1,1.4911212E1,2.2536617E1,1.9031904E1,5.405368E1,1.2909354E1,2.0018573E0,2.129523E1,1.2413882E0,7.4408097E0,1.1591095E1,1.7225485E1,3.6828194E1,7.2831206E0,5.6262336E0,1.7104025E1,4.1912045E0,4.2384477E0,3.2023618E0,1.4197387E1,3.0280983E0,3.486581E1,1.962382E0,2.415938E0,4.8671827E0,1.0019692E0,4.6242642E0,1.1118146E0,1.5992211E1,1.9954907E0,2.1957138E0,3.1912837E0,1.0471642E0,2.1492565E0,1.0531052E0,5.841525E0,8.355862E0,1.3901584E0,1.6379399E0,3.0506365E1,4.359447E0],"tree_param":{"num_deleted":"0","num_feature":"5","num_nodes":"43","size_leaf_vector":"1"}},{"base_weights":[-3.723012E-2,-6.959583E-1,3.0523205E-1,-4.6993563E-1,-8.4449226E-1,-7.959211E-1,6.9406134E-1,-8.49391E-1,1.4725591E-1,-9.055066E-1,-3.1143945E-1,-3.9170158E-1,-1.0124902E-1,-4.1089994E-1,1.2172362E0,-3.0006165E-2,-9.0404767E-1,-1.7903812E-1,1.0028537E-1,-5.180761E-1,-1.0406258E-1,3.8843956E-2,-7.256841E-2,-7.261994E-1,1.0228412E-1,9.4743003E-4,-6.9020283E-1,1.2714304E0,6.5914404E-1,-3.0447895E-2,-9.844784E-2,-5.0485708E-2,5.8029097E-2,-7.568338E-2,3.757883E-2,-8.609804E-2,-1.0870949E-2,-4.3692615E-2,6.4516224E-2,-7.710755E-2,3.4919575E-2,-1.95823E-2,-8.720223E-2,1.309012E-1,4.5982584E-2,2.1521961E-2,9.743415E-2],"categories":[],"categories_nodes":[],"categories_segments":[],"categories_sizes":[],"default_left":[0,0,0,0,0,0,0,0,0,0,0,0,0,0,0,0,0,0,0,0,0,0,0,0,0,0,0,0,0,0,0,0,0,0,0,0,0,0,0,0,0,0,0,0,0,0,0],"id":10,"left_children":[1,3,5,7,9,11,13,15,17,19,21,23,-1,25,27,-1,29,31,-1,33,-1,-1,-1,35,37,39,41,43,45,-1,-1,-1,-1,-1,-1,-1,-1,-1,-1,-1,-1,-1,-1,-1,-1,-1,-1],"loss_changes":[2.4198318E1,8.3436394E-1,3.0802553E1,4.059127E0,3.9695358E-1,1.2582169E0,3.0993267E1,4.5496464E-2,2.2029667E0,4.1403198E-1,1.3454124E0,1.4334462E0,0E0,2.0363882E0,2.523117E-1,0E0,1.390214E-1,1.8009806E0,0E0,1.714196E0,0E0,0E0,0E0,3.248601E-1,1.5106281E0,2.4605324E0,7.77287E-1,3.675232E-1,5.2734184E-1,0E0,0E0,0E0,0E0,0E0,0E0,0E0,0E0,0E0,0E0,0E0,0E0,0E0,0E0,0E0,0E0,0E0,0E0],"parents":[2147483647,0,0,1,1,2,2,3,3,4,4,5,5,6,6,7,7,8,8,9,9,10,10,11,11,13,13,14,14,16,16,17,17,19,19,23,23,24,24,25,25,26,26,27,27,28,28],"right_children":[2,4,6,8,10,12,14,16,18,20,22,24,-1,26,28,-1,30,32,-1,34,-1,-1,-1,36,38,40,42,44,46,-1,-1,-1,-1,-1,-1,-1,-1,-1,-1,-1,-1,-1,-1,-1,-1,-1,-1],"split_conditions":[5.1E1,5.7E1,5.1E1,4.5E1,8.9E1,6.6E1,5.1E1,2.8E1,8.8E1,4.4E1,5.9E1,4.1E1,-1.0124902E-1,3.1E1,9.3E1,-3.0006165E-2,2.4E1,4.4E1,1.0028537E-1,4E1,-1.0406258E-1,3.8843956E-2,-7.256841E-2,7.7E1,5.6E1,6.7E1,6.9E1,9.3E1,7.4E1,-3.0447895E-2,-9.844784E-2,-5.0485708E-2,5.8029097E-2,-7.568338E-2,3.757883E-2,-8.609804E-2,-1.0870949E-2,-4.3692615E-2,6.4516224E-2,-7.710755E-2,3.4919575E-2,-1.95823E-2,-8.720223E-2,1.309012E-1,4.5982584E-2,2.1521961E-2,9.743415E-2],"split_indices":[1,0,2,0,4,1,0,2,3,4,3,2,0,0,2,0,1,1,0,4,0,0,0,4,0,1,1,4,1,0,0,0,0,0,0,0,0,0,0,0,0,0,0,0,0,0,0],"split_type":[0,0,0,0,0,0,0,0,0,0,0,0,0,0,0,0,0,0,0,0,0,0,0,0,0,0,0,0,0,0,0,0,0,0,0,0,0,0,0,0,0,0,0,0,0,0,0],"sum_hessian":[1.0532538E2,3.5673996E1,6.965138E1,1.5798064E1,1.9875933E1,1.7903168E1,5.1748215E1,9.550256E0,6.2478085E0,1.7207598E1,2.668336E0,7.225556E0,1.0677611E1,1.66974E1,3.5050816E1,1.4515297E0,8.098725E0,5.0953655E0,1.1524429E0,5.699501E0,1.1508097E1,1.0152811E0,1.6530547E0,4.027971E0,3.1975849E0,7.150381E0,9.547019E0,3.0783384E1,4.2674313E0,1.5239662E0,6.5747595E0,3.7999713E0,1.2953942E0,4.6190276E0,1.0804737E0,2.9826238E0,1.0453471E0,1.702126E0,1.4954588E0,1.8453398E0,5.3050413E0,3.1255224E0,6.4214964E0,2.8835289E1,1.9480952E0,2.470618E0,1.7968131E0],"tree_param":{"num_deleted":"0","num_feature":"5","num_nodes":"47","size_leaf_vector":"1"}},{"base_weights":[-3.826986E-2,-6.558758E-1,2.9569364E-1,-8.347319E-1,-4.779969E-1,-7.6734984E-1,6.6646945E-1,-9.210145E-3,-8.787381E-1,-6.0522556E-1,1.7822434E-1,-3.520874E-1,-9.957091E-2,-3.888804E-1,1.1907862E0,-9.277685E-2,-1.226643E-2,-7.498529E-1,1.4546399E-1,7.026433E-2,-6.1890047E-2,-6.8192184E-1,9.699744E-2,-5.448709E-1,2.6882794E-1,1.2503222E0,6.2537605E-1,3.386719E-3,-9.155857E-2,6.1740953E-2,-3.321724E-2,-1.220588E-2,-8.153536E-2,-4.1628715E-2,6.001059E-2,-8.13794E-2,-9.020175E-3,7.8962706E-2,-3.300215E-2,1.2923427E-1,4.3180946E-2,9.446322E-2,1.8736279E-2],"categories":[],"categories_nodes":[],"categories_segments":[],"categories_sizes":[],"default_left":[0,0,0,0,0,0,0,0,0,0,0,0,0,0,0,0,0,0,0,0,0,0,0,0,0,0,0,0,0,0,0,0,0,0,0,0,0,0,0,0,0,0,0],"id":11,"left_children":[1,3,5,7,9,11,13,-1,15,17,19,21,-1,23,25,-1,-1,27,29,-1,-1,31,33,35,37,39,41,-1,-1,-1,-1,-1,-1,-1,-1,-1,-1,-1,-1,-1,-1,-1,-1],"loss_changes":[2.1077705E1,7.4142647E-1,2.6684994E1,4.5939922E-1,1.8037109E0,1.3218946E0,2.8001745E1,0E0,4.6048832E-1,1.9809175E0,2.136687E0,1.2221909E0,0E0,1.9185925E0,3.4560776E-1,0E0,0E0,1.9297457E0,1.0216804E0,0E0,0E0,2.4592733E-1,1.3293387E0,1.6740704E0,1.502157E0,4.4984818E-1,5.490062E-1,0E0,0E0,0E0,0E0,0E0,0E0,0E0,0E0,0E0,0E0,0E0,0E0,0E0,0E0,0E0,0E0],"parents":[2147483647,0,0,1,1,2,2,3,3,4,4,5,5,6,6,8,8,9,9,10,10,11,11,13,13,14,14,17,17,18,18,21,21,22,22,23,23,24,24,25,25,26,26],"right_children":[2,4,6,8,10,12,14,-1,16,18,20,22,-1,24,26,-1,-1,28,30,-1,-1,32,34,36,38,40,42,-1,-1,-1,-1,-1,-1,-1,-1,-1,-1,-1,-1,-1,-1,-1,-1],"split_conditions":[5.2E1,3.4E1,5.1E1,2.6E1,8.7E1,6.6E1,5.1E1,-9.210145E-3,9.5E1,8.7E1,5.2E1,4.1E1,-9.957091E-2,9E1,9.3E1,-9.277685E-2,-1.226643E-2,3.4E1,9.1E1,7.026433E-2,-6.1890047E-2,5.4E1,5.6E1,7.4E1,9.2E1,9.3E1,6E1,3.386719E-3,-9.155857E-2,6.1740953E-2,-3.321724E-2,-1.220588E-2,-8.153536E-2,-4.1628715E-2,6.001059E-2,-8.13794E-2,-9.020175E-3,7.8962706E-2,-3.300215E-2,1.2923427E-1,4.3180946E-2,9.446322E-2,1.8736279E-2],"split_indices":[1,1,2,0,4,1,0,0,0,3,3,2,0,2,2,0,0,2,3,0,0,0,0,3,2,4,4,0,0,0,0,0,0,0,0,0,0,0,0,0,0,0,0],"split_type":[0,0,0,0,0,0,0,0,0,0,0,0,0,0,0,0,0,0,0,0,0,0,0,0,0,0,0,0,0,0,0,0,0,0,0,0,0,0,0,0,0,0,0],"sum_hessian":[1.0025078E2,3.484579E1,6.540499E1,1.5533882E1,1.9311907E1,1.6636696E1,4.8768295E1,1.0420256E0,1.4491858E1,1.6240831E1,3.0710745E0,6.8046036E0,9.832092E0,1.6272718E1,3.2495575E1,1.3396054E1,1.0958031E0,1.3618261E1,2.6225708E0,1.9238946E0,1.1471798E0,3.6242619E0,3.1803417E0,1.32918215E1,2.9808965E0,2.8303905E1,4.1916714E0,2.5160353E0,1.1102226E1,1.1719495E0,1.4506211E0,1.066043E0,2.5582187E0,1.659671E0,1.5206708E0,7.8556075E0,5.436214E0,1.4239562E0,1.5569402E0,2.637118E1,1.932725E0,1.7555029E0,2.4361684E0],"tree_param":{"num_deleted":"0","num_feature":"5","num_nodes":"43","size_leaf_vector":"1"}},{"base_weights":[-3.7580304E-2,-6.253756E-1,2.814729E-1,-3.9302468E-1,-7.568712E-1,-7.439172E-1,6.353945E-1,-5.04941E-1,2.4136588E-2,-8.4757906E-1,-2.0136133E-1,-3.3547363E-1,-9.7956546E-2,-3.6370143E-1,1.1447709E0,-8.099579E-2,-1.4761333E-1,-1.115039E-2,-8.863029E-1,1.6270915E-1,-6.2567554E-2,-6.5895844E-1,9.175288E-2,2.552407E-2,-6.425416E-1,1.2054294E0,5.938776E-1,4.6322145E-2,-5.122387E-2,-9.338066E-2,-7.4401232E-3,-3.153817E-2,5.482732E-2,-7.9719774E-2,-1.0272244E-2,-3.9664276E-2,5.5889226E-2,-7.298049E-2,3.4214716E-2,-1.6045868E-2,-8.315473E-2,1.2493308E-1,4.056971E-2,9.0525545E-2,1.7491205E-2],"categories":[],"categories_nodes":[],"categories_segments":[],"categories_sizes":[],"default_left":[0,0,0,0,0,0,0,0,0,0,0,0,0,0,0,0,0,0,0,0,0,0,0,0,0,0,0,0,0,0,0,0,0,0,0,0,0,0,0,0,0,0,0,0,0],"id":12,"left_children":[1,3,5,7,9,11,13,15,-1,17,19,21,-1,23,25,-1,27,-1,29,31,-1,33,35,37,39,41,43,-1,-1,-1,-1,-1,-1,-1,-1,-1,-1,-1,-1,-1,-1,-1,-1,-1,-1],"loss_changes":[1.8255947E1,7.483282E-1,2.3400438E1,1.1478496E0,8.763237E-1,1.2760124E0,2.4593035E1,1.2544906E0,0E0,4.0141392E-1,7.549733E-1,1.1136053E0,0E0,1.8398046E0,3.4361267E-1,0E0,1.8027163E0,0E0,5.6801796E-1,7.3868483E-1,0E0,2.6097405E-1,1.1711053E0,2.1567497E0,7.619295E-1,4.6180344E-1,5.090641E-1,0E0,0E0,0E0,0E0,0E0,0E0,0E0,0E0,0E0,0E0,0E0,0E0,0E0,0E0,0E0,0E0,0E0,0E0],"parents":[2147483647,0,0,1,1,2,2,3,3,4,4,5,5,6,6,7,7,9,9,10,10,11,11,13,13,14,14,16,16,18,18,19,19,21,21,22,22,23,23,24,24,25,25,26,26],"right_children":[2,4,6,8,10,12,14,16,-1,18,20,22,-1,24,26,-1,28,-1,30,32,-1,34,36,38,40,42,44,-1,-1,-1,-1,-1,-1,-1,-1,-1,-1,-1,-1,-1,-1,-1,-1,-1,-1],"split_conditions":[5.2E1,4.9E1,5.1E1,4.5E1,4.7E1,6.6E1,5.1E1,3.6E1,2.4136588E-2,2.4E1,8.4E1,4.1E1,-9.7956546E-2,3.1E1,9.3E1,-8.099579E-2,4E1,-1.115039E-2,9.7E1,6.7E1,-6.2567554E-2,8.5E1,5.6E1,6.7E1,6.9E1,9.3E1,6E1,4.6322145E-2,-5.122387E-2,-9.338066E-2,-7.4401232E-3,-3.153817E-2,5.482732E-2,-7.9719774E-2,-1.0272244E-2,-3.9664276E-2,5.5889226E-2,-7.298049E-2,3.4214716E-2,-1.6045868E-2,-8.315473E-2,1.2493308E-1,4.056971E-2,9.0525545E-2,1.7491205E-2],"split_indices":[1,2,2,2,1,1,0,1,0,3,2,2,0,0,2,0,1,0,0,2,0,3,0,1,1,4,4,0,0,0,0,0,0,0,0,0,0,0,0,0,0,0,0,0,0],"split_type":[0,0,0,0,0,0,0,0,0,0,0,0,0,0,0,0,0,0,0,0,0,0,0,0,0,0,0,0,0,0,0,0,0,0,0,0,0,0,0,0,0,0,0,0,0],"sum_hessian":[9.540672E1,3.322881E1,6.2177914E1,1.3450621E1,1.9778189E1,1.5671668E1,4.650625E1,1.16070175E1,1.8436035E0,1.655001E1,3.2281783E0,6.620364E0,9.051304E0,1.5800659E1,3.070559E1,5.5784826E0,6.0285344E0,1.0210495E0,1.5528961E1,2.0692525E0,1.1589259E0,3.4589372E0,3.1614273E0,6.9741263E0,8.826532E0,2.6589678E1,4.11591E0,2.1523798E0,3.876155E0,1.4528749E1,1.0002121E0,1.0050447E0,1.0642078E0,2.423446E0,1.035491E0,1.6193272E0,1.5421E0,1.6745037E0,5.299623E0,3.0066507E0,5.819882E0,2.4673061E1,1.9166176E0,1.6952779E0,2.4206324E0],"tree_param":{"num_deleted":"0","num_feature":"5","num_nodes":"45","size_leaf_vector":"1"}},{"base_weights":[-3.844601E-2,-6.0994023E-1,2.5944683E-1,-3.6723614E-1,-7.76701E-1,-7.262691E-1,5.9500104E-1,-7.8295773E-1,2.5274223E-1,-8.451194E-1,-2.3802501E-1,-3.412695E-1,-9.639063E-2,-3.4429556E-1,1.0778668E0,-2.6649151E-2,-8.459358E-1,-6.109629E-2,5.375771E-1,-4.3118265E-1,-1.0002165E-1,3.9114594E-2,-6.6341184E-2,-6.588226E-1,8.6590104E-2,2.813874E-1,-4.9648425E-1,1.1105452E0,3.8131576E-2,-2.1348683E-2,-9.350608E-2,-2.6560036E-2,8.727861E-2,-6.921279E-2,4.2657923E-2,-7.964902E-2,-9.788199E-3,-3.7793644E-2,5.21074E-2,7.118352E-2,-1.2064382E-2,-7.867419E-3,-7.5983755E-2,1.1767284E-1,5.6459278E-2],"categories":[],"categories_nodes":[],"categories_segments":[],"categories_sizes":[],"default_left":[0,0,0,0,0,0,0,0,0,0,0,0,0,0,0,0,0,0,0,0,0,0,0,0,0,0,0,0,0,0,0,0,0,0,0,0,0,0,0,0,0,0,0,0,0],"id":13,"left_children":[1,3,5,7,9,11,13,15,17,19,21,23,-1,25,27,-1,29,-1,31,33,-1,-1,-1,35,37,39,41,43,-1,-1,-1,-1,-1,-1,-1,-1,-1,-1,-1,-1,-1,-1,-1,-1,-1],"loss_changes":[1.5811258E1,1.0019436E0,2.0655396E1,4.025069E0,4.6053505E-1,1.1328821E0,2.1308775E1,7.1620464E-2,1.9807334E0,5.662956E-1,1.1736022E0,1.0959396E0,0E0,1.7043695E0,2.7604675E-1,0E0,2.3329163E-1,0E0,1.7348305E0,1.6366371E0,0E0,0E0,0E0,2.699355E-1,1.0327575E0,7.526705E-1,1.4343054E0,3.7740707E-1,0E0,0E0,0E0,0E0,0E0,0E0,0E0,0E0,0E0,0E0,0E0,0E0,0E0,0E0,0E0,0E0,0E0],"parents":[2147483647,0,0,1,1,2,2,3,3,4,4,5,5,6,6,7,7,8,8,9,9,10,10,11,11,13,13,14,14,16,16,18,18,19,19,23,23,24,24,25,25,26,26,27,27],"right_children":[2,4,6,8,10,12,14,16,18,20,22,24,-1,26,28,-1,30,-1,32,34,-1,-1,-1,36,38,40,42,44,-1,-1,-1,-1,-1,-1,-1,-1,-1,-1,-1,-1,-1,-1,-1,-1,-1],"split_conditions":[5.1E1,5.7E1,5.1E1,4.5E1,8.9E1,6.6E1,5.1E1,2.4E1,4.8E1,4.4E1,5.9E1,4.1E1,-9.639063E-2,2.5E1,9.4E1,-2.6649151E-2,2.8E1,-6.109629E-2,4E1,4E1,-1.0002165E-1,3.9114594E-2,-6.6341184E-2,8.5E1,5.6E1,3.8E1,7.3E1,9.3E1,3.8131576E-2,-2.1348683E-2,-9.350608E-2,-2.6560036E-2,8.727861E-2,-6.921279E-2,4.2657923E-2,-7.964902E-2,-9.788199E-3,-3.7793644E-2,5.21074E-2,7.118352E-2,-1.2064382E-2,-7.867419E-3,-7.5983755E-2,1.1767284E-1,5.6459278E-2],"split_indices":[1,0,2,0,4,1,0,1,4,4,3,2,0,0,4,0,2,0,3,4,0,0,0,3,0,4,1,2,0,0,0,0,0,0,0,0,0,0,0,0,0,0,0,0,0],"split_type":[0,0,0,0,0,0,0,0,0,0,0,0,0,0,0,0,0,0,0,0,0,0,0,0,0,0,0,0,0,0,0,0,0,0,0,0,0,0,0,0,0,0,0,0,0],"sum_hessian":[9.094454E1,3.0802942E1,6.0141598E1,1.3849098E1,1.6953844E1,1.497805E1,4.5163548E1,8.13282E0,5.716278E0,1.4538407E1,2.4154377E0,6.6463265E0,8.331724E0,1.5431782E1,2.9731766E1,1.4525276E0,6.6802926E0,1.1336716E0,4.5826063E0,4.9929266E0,9.545481E0,1.0068071E0,1.4086305E0,3.5050807E0,3.1412458E0,2.8530984E0,1.2578684E1,2.7831707E1,1.9000593E0,1.2444912E0,5.435801E0,1.4105401E0,3.1720662E0,3.976355E0,1.0165718E0,2.4772003E0,1.0278805E0,1.5810364E0,1.5602095E0,1.0057079E0,1.8473904E0,5.365328E0,7.213356E0,2.3792128E1,4.0395784E0],"tree_param":{"num_deleted":"0","num_feature":"5","num_nodes":"45","size_leaf_vector":"1"}},{"base_weights":[-3.990416E-2,-5.75425E-1,2.5441945E-1,-3.3799922E-1,-7.1585864E-1,-6.986695E-1,5.77707E-1,-1.4235517E-1,-8.126974E-2,-8.043813E-1,-1.9520159E-1,-3.0489218E-1,-9.486012E-2,-3.20649E-1,1.0659587E0,-4.559671E-1,1.9949949E-1,-8.484891E-1,-9.477272E-3,1.5439019E-2,-6.1104704E-2,-7.4647196E-2,4.81761E-3,-4.7654983E-1,2.8997633E-1,1.1313913E0,5.291916E-1,-6.895787E-2,3.180384E-2,6.393259E-2,-4.3385617E-2,-9.125951E-3,-8.9709155E-2,3.359178E-2,-3.1654544E-2,-4.656678E-4,-7.734051E-2,7.33677E-2,-2.7555062E-2,1.180287E-1,3.5851568E-2,1.1279023E-2,8.586559E-2],"categories":[],"categories_nodes":[],"categories_segments":[],"categories_sizes":[],"default_left":[0,0,0,0,0,0,0,0,0,0,0,0,0,0,0,0,0,0,0,0,0,0,0,0,0,0,0,0,0,0,0,0,0,0,0,0,0,0,0,0,0,0,0],"id":14,"left_children":[1,3,5,7,9,11,13,15,-1,17,19,21,-1,23,25,27,29,31,-1,-1,-1,-1,33,35,37,39,41,-1,-1,-1,-1,-1,-1,-1,-1,-1,-1,-1,-1,-1,-1,-1,-1],"loss_changes":[1.3953611E1,8.041954E-1,1.8035614E1,1.1432402E0,7.104149E-1,1.181788E0,1.932432E1,1.2500787E0,0E0,4.1302204E-1,6.838855E-1,9.9880373E-1,0E0,1.6620628E0,3.9417267E-1,1.2939268E0,1.912153E0,4.5975685E-1,0E0,0E0,0E0,0E0,6.6715425E-1,1.8357241E0,1.1751063E0,4.9588394E-1,5.823016E-1,0E0,0E0,0E0,0E0,0E0,0E0,0E0,0E0,0E0,0E0,0E0,0E0,0E0,0E0,0E0,0E0],"parents":[2147483647,0,0,1,1,2,2,3,3,4,4,5,5,6,6,7,7,9,9,10,10,11,11,13,13,14,14,15,15,16,16,17,17,22,22,23,23,24,24,25,25,26,26],"right_children":[2,4,6,8,10,12,14,16,-1,18,20,22,-1,24,26,28,30,32,-1,-1,-1,-1,34,36,38,40,42,-1,-1,-1,-1,-1,-1,-1,-1,-1,-1,-1,-1,-1,-1,-1,-1],"split_conditions":[5.2E1,4.9E1,5.1E1,7.9E1,4.7E1,6.6E1,5.1E1,3.6E1,-8.126974E-2,9.7E1,8.4E1,3.3E1,-9.486012E-2,9E1,9.3E1,7.7E1,5.7E1,2.5E1,-9.477272E-3,1.5439019E-2,-6.1104704E-2,-7.4647196E-2,4.4E1,6.7E1,9.2E1,9.3E1,7.4E1,-6.895787E-2,3.180384E-2,6.393259E-2,-4.3385617E-2,-9.125951E-3,-8.9709155E-2,3.359178E-2,-3.1654544E-2,-4.656678E-4,-7.734051E-2,7.33677E-2,-2.7555062E-2,1.180287E-1,3.5851568E-2,1.1279023E-2,8.586559E-2],"split_indices":[1,2,2,0,1,1,0,1,0,0,2,2,0,2,2,3,3,3,0,0,0,0,2,2,2,4,1,0,0,0,0,0,0,0,0,0,0,0,0,0,0,0,0],"split_type":[0,0,0,0,0,0,0,0,0,0,0,0,0,0,0,0,0,0,0,0,0,0,0,0,0,0,0,0,0,0,0,0,0,0,0,0,0,0,0,0,0,0,0],"sum_hessian":[8.6600075E1,3.0375988E1,5.6224087E1,1.2555576E1,1.7820412E1,1.3946641E1,4.2277447E1,9.811649E0,2.7439277E0,1.4765099E1,3.0553129E0,6.2769537E0,7.669687E0,1.500759E1,2.7269855E1,4.9431133E0,4.868536E0,1.3716778E1,1.0483208E0,2.0014617E0,1.0538512E0,2.0062466E0,4.270707E0,1.2130167E1,2.8774233E0,2.3319405E1,3.950452E0,3.8808625E0,1.0622507E0,2.8676817E0,2.000854E0,1.0008675E0,1.271591E1,2.081179E0,2.1895282E0,5.0763245E0,7.0538425E0,1.4457694E0,1.4316539E0,2.1436121E1,1.8832836E0,2.3379376E0,1.6125145E0],"tree_param":{"num_deleted":"0","num_feature":"5","num_nodes":"43","size_leaf_vector":"1"}},{"base_weights":[-4.0209547E-2,-5.4891807E-1,2.422656E-1,-3.2719433E-1,-6.998909E-1,-6.7505705E-1,5.5262434E-1,-7.421668E-1,2.3729897E-1,-3.3776215E-1,-9.01697E-1,-2.8978035E-1,-9.335398E-2,-2.9874358E-1,1.0314653E0,-2.2602687E-2,-8.1000423E-1,-5.7753246E-2,4.8664194E-1,-5.5613375E-1,4.678734E-2,1.05790915E-2,-1.0333132E-1,-7.260492E-2,4.4911467E-3,6.5718904E-2,-5.7853997E-1,1.099281E0,5.0377077E-1,-2.0385962E-2,-9.033618E-2,1.2695575E-1,4.7976044E-3,-4.742066E-3,-8.2954735E-2,-2.532511E-2,3.9246343E-2,-7.0893005E-2,3.6643915E-2,-1.2139594E-2,-7.7556446E-2,1.1512488E-1,3.371669E-2,8.2648575E-2,1.049267E-2],"categories":[],"categories_nodes":[],"categories_segments":[],"categories_sizes":[],"default_left":[0,0,0,0,0,0,0,0,0,0,0,0,0,0,0,0,0,0,0,0,0,0,0,0,0,0,0,0,0,0,0,0,0,0,0,0,0,0,0,0,0,0,0,0,0],"id":15,"left_children":[1,3,5,7,9,11,13,15,17,19,21,23,-1,25,27,-1,29,-1,31,33,-1,-1,-1,-1,35,37,39,41,43,-1,-1,-1,-1,-1,-1,-1,-1,-1,-1,-1,-1,-1,-1,-1,-1],"loss_changes":[1.2153074E1,7.8095436E-1,1.588273E1,3.4789596E0,9.43017E-1,1.1458173E0,1.7126709E1,1.0992241E-1,1.6486828E0,1.6162539E0,1.4835224E0,9.225482E-1,0E0,1.6315159E0,3.991604E-1,0E0,2.1247673E-1,0E0,1.895618E0,8.676851E-1,0E0,0E0,0E0,0E0,6.2638134E-1,2.0498714E0,7.112355E-1,5.1288605E-1,5.4119563E-1,0E0,0E0,0E0,0E0,0E0,0E0,0E0,0E0,0E0,0E0,0E0,0E0,0E0,0E0,0E0,0E0],"parents":[2147483647,0,0,1,1,2,2,3,3,4,4,5,5,6,6,7,7,8,8,9,9,10,10,11,11,13,13,14,14,16,16,18,18,19,19,24,24,25,25,26,26,27,27,28,28],"right_children":[2,4,6,8,10,12,14,16,18,20,22,24,-1,26,28,-1,30,-1,32,34,-1,-1,-1,-1,36,38,40,42,44,-1,-1,-1,-1,-1,-1,-1,-1,-1,-1,-1,-1,-1,-1,-1,-1],"split_conditions":[5.2E1,5.7E1,5.1E1,4.5E1,5.4E1,6.6E1,5.1E1,2.4E1,4.8E1,8.6E1,2.8E1,3.3E1,-9.335398E-2,3.1E1,9.3E1,-2.2602687E-2,2.8E1,-5.7753246E-2,5.4E1,4.4E1,4.678734E-2,1.05790915E-2,-1.0333132E-1,-7.260492E-2,7.8E1,4.5E1,6.9E1,9.3E1,6E1,-2.0385962E-2,-9.033618E-2,1.2695575E-1,4.7976044E-3,-4.742066E-3,-8.2954735E-2,-2.532511E-2,3.9246343E-2,-7.0893005E-2,3.6643915E-2,-1.2139594E-2,-7.7556446E-2,1.1512488E-1,3.371669E-2,8.2648575E-2,1.049267E-2],"split_indices":[1,0,2,0,3,1,0,1,4,4,4,2,0,0,2,0,2,0,4,4,0,0,0,0,4,3,1,4,4,0,0,0,0,0,0,0,0,0,0,0,0,0,0,0,0],"split_type":[0,0,0,0,0,0,0,0,0,0,0,0,0,0,0,0,0,0,0,0,0,0,0,0,0,0,0,0,0,0,0,0,0,0,0,0,0,0,0,0,0,0,0,0,0],"sum_hessian":[8.264855E1,2.9171125E1,5.3477425E1,1.3099703E1,1.6071424E1,1.3222069E1,4.0255356E1,7.3683233E0,5.7313795E0,6.708008E0,9.363416E0,6.1605916E0,7.061477E0,1.4626284E1,2.5629074E1,1.3591489E0,6.0091743E0,1.0345011E0,4.6968784E0,5.521164E0,1.1868439E0,1.1045538E0,8.258862E0,1.8905307E0,4.270061E0,6.684361E0,7.941922E0,2.1750654E1,3.8784204E0,1.2268996E0,4.782275E0,1.0064565E0,3.6904216E0,2.3402803E0,3.180884E0,2.77427E0,1.4957911E0,1.48964E0,5.194721E0,2.8787282E0,5.0631943E0,1.9884174E1,1.8664801E0,1.5511456E0,2.3272746E0],"tree_param":{"num_deleted":"0","num_feature":"5","num_nodes":"45","size_leaf_vector":"1"}},{"base_weights":[-4.1025028E-2,-5.236754E-1,2.2872321E-1,-7.246197E-1,-3.397382E-1,-6.510434E-1,5.255031E-1,-3.6070046E-1,-9.4888344E-2,-4.722942E-1,2.3863731E-1,-2.7391434E-1,-9.1862865E-2,-2.8299907E-1,9.994129E-1,-7.445374E-2,-8.362686E-3,-6.415459E-1,2.8999218E-1,5.9652038E-2,-3.608088E-2,-7.0627086E-2,6.4908136E-3,-4.3666893E-1,2.9428738E-1,1.0698713E0,4.7998396E-1,3.0912176E-2,-5.4348897E-2,1.2313281E-2,-8.359202E-2,6.365424E-2,-1.8683169E-2,4.021487E-2,-2.4052966E-2,2.5235622E-3,-7.403353E-2,6.857441E-2,-2.4070058E-2,1.12527266E-1,3.1715516E-2,8.575493E-3,8.0699466E-2],"categories":[],"categories_nodes":[],"categories_segments":[],"categories_sizes":[],"default_left":[0,0,0,0,0,0,0,0,0,0,0,0,0,0,0,0,0,0,0,0,0,0,0,0,0,0,0,0,0,0,0,0,0,0,0,0,0,0,0,0,0,0,0],"id":16,"left_children":[1,3,5,7,9,11,13,15,-1,17,19,21,-1,23,25,-1,27,29,31,-1,-1,-1,33,35,37,39,41,-1,-1,-1,-1,-1,-1,-1,-1,-1,-1,-1,-1,-1,-1,-1,-1],"loss_changes":[1.0524426E1,8.2404566E-1,1.3908989E1,7.1506786E-1,1.4160624E0,1.116128E0,1.5382045E1,8.799846E-1,0E0,2.0137277E0,1.0377617E0,8.593182E-1,0E0,1.4895315E0,4.0381813E-1,0E0,9.202931E-1,1.8722014E0,6.5803957E-1,0E0,0E0,0E0,6.115522E-1,1.774708E0,9.656459E-1,5.295906E-1,5.505748E-1,0E0,0E0,0E0,0E0,0E0,0E0,0E0,0E0,0E0,0E0,0E0,0E0,0E0,0E0,0E0,0E0],"parents":[2147483647,0,0,1,1,2,2,3,3,4,4,5,5,6,6,7,7,9,9,10,10,11,11,13,13,14,14,16,16,17,17,18,18,22,22,23,23,24,24,25,25,26,26],"right_children":[2,4,6,8,10,12,14,16,-1,18,20,22,-1,24,26,-1,28,30,32,-1,-1,-1,34,36,38,40,42,-1,-1,-1,-1,-1,-1,-1,-1,-1,-1,-1,-1,-1,-1,-1,-1],"split_conditions":[5.2E1,3.4E1,5.1E1,5.4E1,8.7E1,6.6E1,5.1E1,3.6E1,-9.4888344E-2,8.7E1,4.8E1,3.3E1,-9.1862865E-2,9E1,9.3E1,-7.445374E-2,7E1,3.4E1,9.1E1,5.9652038E-2,-3.608088E-2,-7.0627086E-2,4.4E1,6.7E1,9.2E1,9.3E1,7.4E1,3.0912176E-2,-5.4348897E-2,1.2313281E-2,-8.359202E-2,6.365424E-2,-1.8683169E-2,4.021487E-2,-2.4052966E-2,2.5235622E-3,-7.403353E-2,6.857441E-2,-2.4070058E-2,1.12527266E-1,3.1715516E-2,8.575493E-3,8.0699466E-2],"split_indices":[1,1,2,4,4,1,0,4,0,3,3,2,0,2,2,0,2,2,3,0,0,0,3,2,2,4,1,0,0,0,0,0,0,0,0,0,0,0,0,0,0,0,0],"split_type":[0,0,0,0,0,0,0,0,0,0,0,0,0,0,0,0,0,0,0,0,0,0,0,0,0,0,0,0,0,0,0,0,0,0,0,0,0,0,0,0,0,0,0],"sum_hessian":[7.891645E1,2.7955456E1,5.0960995E1,1.195528E1,1.6000175E1,1.2553635E1,3.840736E1,5.5528636E0,6.4024167E0,1.3166093E1,2.8340826E0,6.050225E0,6.5034103E0,1.4342143E1,2.4065218E1,2.1248815E0,3.427982E0,1.0903553E1,2.2625403E0,1.7776595E0,1.056423E0,1.7827116E0,4.267513E0,1.151935E1,2.8227923E0,2.0257645E1,3.8075743E0,2.4165869E0,1.0113953E0,2.284141E0,8.619411E0,1.1162785E0,1.1462619E0,1.3988878E0,2.8686254E0,4.9328804E0,6.5864697E0,1.4673339E0,1.3554583E0,1.8407843E1,1.8498012E0,2.2986574E0,1.5089169E0],"tree_param":{"num_deleted":"0","num_feature":"5","num_nodes":"43","size_leaf_vector":"1"}},{"base_weights":[-4.0595558E-2,-4.9809527E-1,2.1800053E-1,-7.0232755E-1,-3.1568074E-1,-6.277001E-1,5.031032E-1,-3.4709197E-1,-9.310552E-2,-4.436467E-1,2.1829116E-1,-2.5900233E-1,-9.037905E-2,-2.6319766E-1,9.6926785E-1,-7.250976E-2,-1.3265201E-2,-6.1070275E-1,2.7323645E-1,5.4630406E-2,-3.4609377E-2,-6.870961E-2,8.753318E-3,8.217828E-2,-5.405462E-1,1.0426179E0,4.5757714E-1,-3.31064E-2,2.8462872E-2,1.1378166E-2,-8.067434E-2,5.94359E-2,-1.7812787E-2,3.215414E-2,-3.004763E-2,-6.787502E-2,3.7692837E-2,-9.245531E-3,-7.4406065E-2,1.10180214E-1,2.9838E-2,7.784365E-2,7.9691205E-3],"categories":[],"categories_nodes":[],"categories_segments":[],"categories_sizes":[],"default_left":[0,0,0,0,0,0,0,0,0,0,0,0,0,0,0,0,0,0,0,0,0,0,0,0,0,0,0,0,0,0,0,0,0,0,0,0,0,0,0,0,0,0,0],"id":17,"left_children":[1,3,5,7,9,11,13,15,-1,17,19,21,-1,23,25,-1,27,29,31,-1,-1,-1,33,35,37,39,41,-1,-1,-1,-1,-1,-1,-1,-1,-1,-1,-1,-1,-1,-1,-1,-1],"loss_changes":[9.1498575E0,8.177686E-1,1.2255619E1,6.800761E-1,1.2280226E0,1.0821185E0,1.3683046E1,8.018421E-1,0E0,1.8056602E0,9.0561175E-1,8.013003E-1,0E0,1.4816791E0,4.081478E-1,0E0,5.1394755E-1,1.7119083E0,5.808562E-1,0E0,0E0,0E0,6.049801E-1,1.9493293E0,7.0212436E-1,5.454178E-1,5.125834E-1,0E0,0E0,0E0,0E0,0E0,0E0,0E0,0E0,0E0,0E0,0E0,0E0,0E0,0E0,0E0,0E0],"parents":[2147483647,0,0,1,1,2,2,3,3,4,4,5,5,6,6,7,7,9,9,10,10,11,11,13,13,14,14,16,16,17,17,18,18,22,22,23,23,24,24,25,25,26,26],"right_children":[2,4,6,8,10,12,14,16,-1,18,20,22,-1,24,26,-1,28,30,32,-1,-1,-1,34,36,38,40,42,-1,-1,-1,-1,-1,-1,-1,-1,-1,-1,-1,-1,-1,-1,-1,-1],"split_conditions":[5.2E1,3.4E1,5.1E1,5.4E1,8.7E1,6.6E1,5.1E1,3.6E1,-9.310552E-2,8.7E1,4.8E1,3.3E1,-9.037905E-2,3.1E1,9.3E1,-7.250976E-2,5.2E1,3.4E1,9.1E1,5.4630406E-2,-3.4609377E-2,-6.870961E-2,4.4E1,6.7E1,6.9E1,9.3E1,6E1,-3.31064E-2,2.8462872E-2,1.1378166E-2,-8.067434E-2,5.94359E-2,-1.7812787E-2,3.215414E-2,-3.004763E-2,-6.787502E-2,3.7692837E-2,-9.245531E-3,-7.4406065E-2,1.10180214E-1,2.9838E-2,7.784365E-2,7.9691205E-3],"split_indices":[1,1,2,4,4,1,0,4,0,3,3,2,0,0,2,0,0,2,3,0,0,0,2,1,1,4,4,0,0,0,0,0,0,0,0,0,0,0,0,0,0,0,0],"split_type":[0,0,0,0,0,0,0,0,0,0,0,0,0,0,0,0,0,0,0,0,0,0,0,0,0,0,0,0,0,0,0,0,0,0,0,0,0,0,0,0,0,0,0],"sum_hessian":[7.542172E1,2.6901796E1,4.8519924E1,1.1347216E1,1.555458E1,1.1930069E1,3.6589855E1,5.4305496E0,5.9166665E0,1.2684021E1,2.8705587E0,5.9381833E0,5.9918857E0,1.400434E1,2.2585516E1,1.9970884E0,3.4334612E0,1.0406984E1,2.277037E0,1.835707E0,1.0348517E0,1.6823201E0,4.2558627E0,6.5506554E0,7.453685E0,1.884633E1,3.7391853E0,1.6073555E0,1.8261057E0,2.3056958E0,8.101289E0,1.145364E0,1.131673E0,2.095965E0,2.159898E0,1.4652244E0,5.0854306E0,2.7822094E0,4.6714754E0,1.7012962E1,1.8333682E0,1.4489328E0,2.2902524E0],"tree_param":{"num_deleted":"0","num_feature":"5","num_nodes":"43","size_leaf_vector":"1"}},{"base_weights":[-4.1355763E-2,-4.8756403E-1,1.98973E-1,-2.453801E-1,-6.698777E-1,-6.1365694E-1,4.7132036E-1,-6.8505716E-1,3.0789202E-1,-3.2614428E-1,-8.4713644E-1,-2.712749E-1,-8.889619E-2,-2.4966274E-1,9.132587E-1,-1.7084211E-2,-7.6065063E-1,-1.0448445E-1,8.794493E-2,-5.152451E-1,3.27788E-2,-1.6374364E-2,-9.358202E-2,-5.8394414E-1,1.0172605E-1,2.962209E-1,-3.984546E-1,4.128739E-1,9.940207E-1,-1.9610845E-2,-8.584483E-2,-7.7136986E-2,7.225992E-2,-7.391933E-3,-7.558355E-2,-7.222144E-2,-1.0811183E-2,5.704091E-2,-2.7807945E-2,-1.2822113E-2,6.7317344E-2,-6.359493E-2,7.510055E-3,8.2426034E-2,-1.4775251E-2,3.6927402E-2,1.07128516E-1],"categories":[],"categories_nodes":[],"categories_segments":[],"categories_sizes":[],"default_left":[0,0,0,0,0,0,0,0,0,0,0,0,0,0,0,0,0,0,0,0,0,0,0,0,0,0,0,0,0,0,0,0,0,0,0,0,0,0,0,0,0,0,0,0,0,0,0],"id":18,"left_children":[1,3,5,7,9,11,13,15,17,19,21,23,-1,25,27,-1,29,31,-1,33,-1,-1,-1,35,37,39,41,43,45,-1,-1,-1,-1,-1,-1,-1,-1,-1,-1,-1,-1,-1,-1,-1,-1,-1,-1],"loss_changes":[7.9508147E0,9.804125E-1,1.0981203E1,3.3036013E0,5.8977175E-1,9.4285536E-1,1.1937466E1,1.5746379E-1,1.5813533E0,9.679889E-1,3.7718582E-1,8.801832E-1,0E0,1.3161494E0,5.1900864E-1,0E0,1.7156696E-1,3.075138E0,0E0,5.176438E-1,0E0,0E0,0E0,1.835705E-1,8.8148963E-1,6.835873E-1,1.3993741E0,1.2534015E0,5.259781E-1,0E0,0E0,0E0,0E0,0E0,0E0,0E0,0E0,0E0,0E0,0E0,0E0,0E0,0E0,0E0,0E0,0E0,0E0],"parents":[2147483647,0,0,1,1,2,2,3,3,4,4,5,5,6,6,7,7,8,8,9,9,10,10,11,11,13,13,14,14,16,16,17,17,19,19,23,23,24,24,25,25,26,26,27,27,28,28],"right_children":[2,4,6,8,10,12,14,16,18,20,22,24,-1,26,28,-1,30,32,-1,34,-1,-1,-1,36,38,40,42,44,46,-1,-1,-1,-1,-1,-1,-1,-1,-1,-1,-1,-1,-1,-1,-1,-1,-1,-1],"split_conditions":[5.1E1,5.7E1,5.1E1,4.5E1,5.1E1,6.6E1,5.1E1,2.4E1,4.3E1,8.6E1,3.3E1,4.1E1,-8.889619E-2,2.5E1,5.8E1,-1.7084211E-2,2.8E1,5.4E1,8.794493E-2,4.4E1,3.27788E-2,-1.6374364E-2,-9.358202E-2,7.5E1,4.4E1,7.4E1,7.5E1,8.1E1,5.7E1,-1.9610845E-2,-8.584483E-2,-7.7136986E-2,7.225992E-2,-7.391933E-3,-7.558355E-2,-7.222144E-2,-1.0811183E-2,5.704091E-2,-2.7807945E-2,-1.2822113E-2,6.7317344E-2,-6.359493E-2,7.510055E-3,8.2426034E-2,-1.4775251E-2,3.6927402E-2,1.07128516E-1],"split_indices":[1,0,2,0,3,1,0,1,1,4,4,2,0,0,1,0,2,0,0,4,0,0,0,4,3,3,4,2,0,0,0,0,0,0,0,0,0,0,0,0,0,0,0,0,0,0,0],"split_type":[0,0,0,0,0,0,0,0,0,0,0,0,0,0,0,0,0,0,0,0,0,0,0,0,0,0,0,0,0,0,0,0,0,0,0,0,0,0,0,0,0,0,0,0,0,0,0],"sum_hessian":[7.223802E1,2.4927483E1,4.7310543E1,1.1713412E1,1.321407E1,1.1561156E1,3.5749386E1,6.3940024E0,5.31941E0,5.462102E0,7.7519684E0,6.037724E0,5.5234323E0,1.3750971E1,2.1998415E1,1.2373177E0,5.1566844E0,3.5646915E0,1.7547183E0,4.4014072E0,1.0606946E0,1.2173672E0,6.534601E0,2.9768445E0,3.0608795E0,2.73308E0,1.1017891E1,3.9065387E0,1.8091875E1,1.2051477E0,3.951537E0,2.010759E0,1.5539327E0,2.0140982E0,2.387309E0,1.9053767E0,1.0714679E0,1.14549E0,1.9153893E0,1.595934E0,1.1371459E0,7.1094666E0,3.9084244E0,1.9819438E0,1.9245948E0,2.6273034E0,1.5464572E1],"tree_param":{"num_deleted":"0","num_feature":"5","num_nodes":"47","size_leaf_vector":"1"}},{"base_weights":[-4.106214E-2,-4.65931E-1,1.891844E-1,-2.054036E-1,-6.428213E-1,-5.9139746E-1,4.5004597E-1,-6.979398E-3,-7.375112E-2,-7.344075E-1,-2.084197E-1,-2.5686556E-1,-8.740926E-2,-2.3011345E-1,8.814661E-1,-3.3727747E-1,3.0827436E-1,-2.2055455E-1,-8.470214E-1,2.2298286E-2,-6.0875308E-2,-5.642891E-1,9.85392E-2,-3.8457212E-1,3.1629702E-1,3.932635E-1,9.634788E-1,1.0905611E-2,-7.143736E-2,6.945701E-2,-3.3940125E-2,-6.407896E-2,3.7145186E-2,-9.373327E-2,-1.2832696E-2,-7.068044E-2,-8.831387E-3,-3.4486633E-2,4.938455E-2,6.131885E-3,-6.9650814E-2,6.615946E-2,-1.9888978E-2,7.982353E-2,-1.3730052E-2,3.4836847E-2,1.04364865E-1],"categories":[],"categories_nodes":[],"categories_segments":[],"categories_sizes":[],"default_left":[0,0,0,0,0,0,0,0,0,0,0,0,0,0,0,0,0,0,0,0,0,0,0,0,0,0,0,0,0,0,0,0,0,0,0,0,0,0,0,0,0,0,0,0,0,0,0],"id":19,"left_children":[1,3,5,7,9,11,13,15,-1,17,19,21,-1,23,25,27,29,31,33,-1,-1,35,37,39,41,43,45,-1,-1,-1,-1,-1,-1,-1,-1,-1,-1,-1,-1,-1,-1,-1,-1,-1,-1,-1,-1],"loss_changes":[6.9547286E0,1.0181794E0,9.680519E0,1.2156885E0,4.1967773E-1,9.1154146E-1,1.0537952E1,1.0860767E0,0E0,4.782524E-1,8.097896E-1,8.114816E-1,0E0,1.3422718E0,4.9227905E-1,9.335127E-1,1.5738326E0,1.0883713E0,4.6873617E-1,0E0,0E0,1.9929194E-1,8.8195485E-1,1.673782E0,7.962011E-1,1.1450523E0,5.210686E-1,0E0,0E0,0E0,0E0,0E0,0E0,0E0,0E0,0E0,0E0,0E0,0E0,0E0,0E0,0E0,0E0,0E0,0E0,0E0,0E0],"parents":[2147483647,0,0,1,1,2,2,3,3,4,4,5,5,6,6,7,7,9,9,10,10,11,11,13,13,14,14,15,15,16,16,17,17,18,18,21,21,22,22,23,23,24,24,25,25,26,26],"right_children":[2,4,6,8,10,12,14,16,-1,18,20,22,-1,24,26,28,30,32,34,-1,-1,36,38,40,42,44,46,-1,-1,-1,-1,-1,-1,-1,-1,-1,-1,-1,-1,-1,-1,-1,-1,-1,-1,-1,-1],"split_conditions":[5.1E1,4.9E1,5.1E1,7.9E1,8.8E1,6.6E1,5.1E1,3.6E1,-7.375112E-2,3.2E1,5.7E1,4.1E1,-8.740926E-2,9E1,5.8E1,5.4E1,5.7E1,6.8E1,4.8E1,2.2298286E-2,-6.0875308E-2,8E1,5.6E1,6.7E1,9.2E1,8.1E1,5.7E1,1.0905611E-2,-7.143736E-2,6.945701E-2,-3.3940125E-2,-6.407896E-2,3.7145186E-2,-9.373327E-2,-1.2832696E-2,-7.068044E-2,-8.831387E-3,-3.4486633E-2,4.938455E-2,6.131885E-3,-6.9650814E-2,6.615946E-2,-1.9888978E-2,7.982353E-2,-1.3730052E-2,3.4836847E-2,1.04364865E-1],"split_indices":[1,2,2,0,3,1,0,1,0,3,0,2,0,2,1,4,3,0,1,0,0,3,0,2,2,2,0,0,0,0,0,0,0,0,0,0,0,0,0,0,0,0,0,0,0,0,0],"split_type":[0,0,0,0,0,0,0,0,0,0,0,0,0,0,0,0,0,0,0,0,0,0,0,0,0,0,0,0,0,0,0,0,0,0,0,0,0,0,0,0,0,0,0,0,0,0,0],"sum_hessian":[6.91928E1,2.395871E1,4.5234097E1,1.0562804E1,1.3395905E1,1.101289E1,3.4221207E1,8.431714E0,2.13109E0,1.0493014E1,2.9028907E0,5.918164E0,5.0947256E0,1.3462846E1,2.075836E1,4.0834923E0,4.348222E0,2.4180503E0,8.074964E0,1.6104566E0,1.2924341E0,2.858145E0,3.060019E0,1.0726793E1,2.736053E0,3.8191266E0,1.6939234E1,2.195584E0,1.8879082E0,2.6783555E0,1.6698663E0,1.3659962E0,1.052054E0,6.903281E0,1.171683E0,1.826345E0,1.0317999E0,1.5024049E0,1.557614E0,4.746057E0,5.9807363E0,1.4679762E0,1.2680768E0,1.8797996E0,1.939327E0,2.569544E0,1.4369689E1],"tree_param":{"num_deleted":"0","num_feature":"5","num_nodes":"47","size_leaf_vector":"1"}},{"base_weights":[-4.223841E-2,-4.3416202E-1,1.8606058E-1,-6.404264E-1,-2.589225E-1,-5.628081E-1,4.371202E-1,-2.915939E-1,-8.887119E-2,1.1643546E-1,-4.2750663E-1,-2.2192147E-1,-8.5914426E-2,-2.1323511E-1,8.806098E-1,-6.846488E-2,3.0739056E-2,5.162309E-1,-4.0758066E-2,-5.594028E-1,1.4481663E-2,-6.411028E-2,2.1176327E-2,6.293903E-2,-5.2645445E-1,9.707531E-1,3.4505767E-1,-2.911065E-2,3.1216053E-2,-1.811103E-2,9.315684E-2,-7.0298806E-2,2.5600597E-2,3.314472E-2,-2.8854528E-2,-7.170344E-2,3.721879E-2,1.0965388E-2,-8.573895E-2,1.04827344E-1,1.9903008E-2,-9.769456E-4,7.236204E-2],"categories":[],"categories_nodes":[],"categories_segments":[],"categories_sizes":[],"default_left":[0,0,0,0,0,0,0,0,0,0,0,0,0,0,0,0,0,0,0,0,0,0,0,0,0,0,0,0,0,0,0,0,0,0,0,0,0,0,0,0,0,0,0],"id":20,"left_children":[1,3,5,7,9,11,13,15,-1,17,19,21,-1,23,25,-1,27,29,-1,31,-1,-1,33,35,37,39,41,-1,-1,-1,-1,-1,-1,-1,-1,-1,-1,-1,-1,-1,-1,-1,-1],"loss_changes":[6.1139975E0,7.4215364E-1,8.388497E0,6.814289E-1,1.0154225E0,9.519386E-1,9.705148E0,7.817107E-1,0E0,1.3658965E0,8.9208734E-1,6.869813E-1,0E0,1.2600648E0,6.2158203E-1,0E0,4.763347E-1,1.2026334E0,0E0,1.226412E0,0E0,0E0,5.906076E-1,2.3004267E0,1.5155665E0,7.72954E-1,5.9891033E-1,0E0,0E0,0E0,0E0,0E0,0E0,0E0,0E0,0E0,0E0,0E0,0E0,0E0,0E0,0E0,0E0],"parents":[2147483647,0,0,1,1,2,2,3,3,4,4,5,5,6,6,7,7,9,9,10,10,11,11,13,13,14,14,16,16,17,17,19,19,22,22,23,23,24,24,25,25,26,26],"right_children":[2,4,6,8,10,12,14,16,-1,18,20,22,-1,24,26,-1,28,30,-1,32,-1,-1,34,36,38,40,42,-1,-1,-1,-1,-1,-1,-1,-1,-1,-1,-1,-1,-1,-1,-1,-1],"split_conditions":[5.2E1,3.4E1,5.1E1,5.4E1,4E1,6.6E1,5.1E1,3.6E1,-8.887119E-2,5.7E1,8.7E1,3.3E1,-8.5914426E-2,3.4E1,9.3E1,-6.846488E-2,5.2E1,4.2E1,-4.0758066E-2,9.2E1,1.4481663E-2,-6.411028E-2,4.4E1,6.7E1,6.9E1,9.3E1,7.1E1,-2.911065E-2,3.1216053E-2,-1.811103E-2,9.315684E-2,-7.0298806E-2,2.5600597E-2,3.314472E-2,-2.8854528E-2,-7.170344E-2,3.721879E-2,1.0965388E-2,-8.573895E-2,1.04827344E-1,1.9903008E-2,-9.769456E-4,7.236204E-2],"split_indices":[1,1,2,4,2,1,0,4,0,3,3,2,0,0,2,0,0,3,0,4,0,0,2,1,1,4,4,0,0,0,0,0,0,0,0,0,0,0,0,0,0,0,0],"split_type":[0,0,0,0,0,0,0,0,0,0,0,0,0,0,0,0,0,0,0,0,0,0,0,0,0,0,0,0,0,0,0,0,0,0,0,0,0,0,0,0,0,0,0],"sum_hessian":[6.64285E1,2.411988E1,4.2308617E1,9.859847E0,1.4260035E1,1.0310976E1,3.199764E1,5.003929E0,4.855918E0,4.5154886E0,9.744546E0,5.608357E0,4.702619E0,1.3183657E1,1.8813984E1,1.748164E0,3.255765E0,2.56976E0,1.9457287E0,7.9377956E0,1.8067499E0,1.4576547E0,4.150702E0,7.430786E0,5.752871E0,1.5407926E1,3.4060578E0,1.5027461E0,1.7530189E0,1.1697402E0,1.40002E0,6.8665385E0,1.0712571E0,2.0384707E0,2.1122313E0,1.7353449E0,5.695441E0,2.197531E0,3.55534E0,1.3675821E1,1.7321043E0,2.2610073E0,1.1450504E0],"tree_param":{"num_deleted":"0","num_feature":"5","num_nodes":"43","size_leaf_vector":"1"}},{"base_weights":[-4.294967E-2,-4.249586E-1,1.6816856E-1,-1.857524E-1,-6.136989E-1,-5.513178E-1,4.0792924E-1,-6.3612366E-1,3.4089825E-1,-2.809071E-1,-7.9947835E-1,-2.3591022E-1,-8.440893E-2,-2.0365365E-1,8.258902E-1,-1.2523939E-2,-7.189646E-1,-5.7281185E-2,8.398034E-2,-6.951948E-2,5.259821E-2,-1.120779E-2,-9.005864E-2,-5.3744227E-1,1.006295E-1,-3.5121748E-1,2.97474E-1,9.0902257E-1,3.2999068E-1,-1.9253822E-2,-8.196428E-2,-7.286225E-2,6.900417E-2,5.637188E-2,-3.7932422E-2,-6.807939E-2,-7.9798205E-3,5.4745693E-2,-2.68392E-2,-6.6722974E-2,9.491456E-3,5.9339233E-2,-1.9986596E-2,2.162426E-2,9.968006E-2,6.994073E-2,-4.6150126E-3],"categories":[],"categories_nodes":[],"categories_segments":[],"categories_sizes":[],"default_left":[0,0,0,0,0,0,0,0,0,0,0,0,0,0,0,0,0,0,0,0,0,0,0,0,0,0,0,0,0,0,0,0,0,0,0,0,0,0,0,0,0,0,0,0,0,0,0],"id":21,"left_children":[1,3,5,7,9,11,13,15,17,19,21,23,-1,25,27,-1,29,31,-1,-1,33,-1,-1,35,37,39,41,43,45,-1,-1,-1,-1,-1,-1,-1,-1,-1,-1,-1,-1,-1,-1,-1,-1,-1,-1],"loss_changes":[5.305954E0,9.418187E-1,7.55959E0,3.0033474E0,5.567565E-1,8.215029E-1,8.4671135E0,1.92734E-1,1.2532363E0,8.7512684E-1,4.250884E-1,7.348505E-1,0E0,1.1384509E0,5.0325394E-1,0E0,1.3571692E-1,2.6651297E0,0E0,0E0,1.1613687E0,0E0,0E0,1.8814778E-1,8.085564E-1,1.6508354E0,6.6639125E-1,7.645111E-1,6.391133E-1,0E0,0E0,0E0,0E0,0E0,0E0,0E0,0E0,0E0,0E0,0E0,0E0,0E0,0E0,0E0,0E0,0E0,0E0],"parents":[2147483647,0,0,1,1,2,2,3,3,4,4,5,5,6,6,7,7,8,8,9,9,10,10,11,11,13,13,14,14,16,16,17,17,20,20,23,23,24,24,25,25,26,26,27,27,28,28],"right_children":[2,4,6,8,10,12,14,16,18,20,22,24,-1,26,28,-1,30,32,-1,-1,34,-1,-1,36,38,40,42,44,46,-1,-1,-1,-1,-1,-1,-1,-1,-1,-1,-1,-1,-1,-1,-1,-1,-1,-1],"split_conditions":[5.1E1,5.7E1,5.1E1,4.5E1,5.1E1,6.6E1,5.1E1,2.4E1,4.3E1,7.4E1,3.3E1,4.1E1,-8.440893E-2,9E1,9.3E1,-1.2523939E-2,2.8E1,5.4E1,8.398034E-2,-6.951948E-2,8.1E1,-1.120779E-2,-9.005864E-2,8E1,4.4E1,7.4E1,3.4E1,5.5E1,6E1,-1.9253822E-2,-8.196428E-2,-7.286225E-2,6.900417E-2,5.637188E-2,-3.7932422E-2,-6.807939E-2,-7.9798205E-3,5.4745693E-2,-2.68392E-2,-6.6722974E-2,9.491456E-3,5.9339233E-2,-1.9986596E-2,2.162426E-2,9.968006E-2,6.994073E-2,-4.6150126E-3],"split_indices":[1,0,2,0,3,1,0,1,1,0,4,2,0,2,2,0,2,0,0,0,0,0,0,3,3,3,0,1,4,0,0,0,0,0,0,0,0,0,0,0,0,0,0,0,0,0,0],"split_type":[0,0,0,0,0,0,0,0,0,0,0,0,0,0,0,0,0,0,0,0,0,0,0,0,0,0,0,0,0,0,0,0,0,0,0,0,0,0,0,0,0,0,0,0,0,0,0],"sum_hessian":[6.390454E1,2.2385712E1,4.151883E1,1.0748024E1,1.1637688E1,1.0052703E1,3.1466125E1,5.6815314E0,5.0664926E0,5.069177E0,6.5685105E0,5.70856E0,4.344143E0,1.298237E1,1.8483757E1,1.1431948E0,4.5383363E0,3.30997E0,1.7565224E0,1.7771068E0,3.2920704E0,1.1126261E0,5.4558845E0,2.6960208E0,3.0125394E0,1.0260247E1,2.7221231E0,1.5116546E1,3.3672104E0,1.1961763E0,3.3421602E0,1.7568052E0,1.5531647E0,1.3680422E0,1.924028E0,1.6816562E0,1.0143645E0,1.1439085E0,1.868631E0,5.715883E0,4.544364E0,1.5855722E0,1.1365509E0,2.089429E0,1.3027117E1,1.2651994E0,2.102011E0],"tree_param":{"num_deleted":"0","num_feature":"5","num_nodes":"47","size_leaf_vector":"1"}},{"base_weights":[-4.2938884E-2,-4.058303E-1,1.5902692E-1,-1.5375885E-1,-5.874919E-1,-5.3043556E-1,3.8866094E-1,3.373435E-2,-6.936783E-2,-6.6162306E-1,-7.333064E-3,-2.235056E-1,-8.28911E-2,-1.885542E-1,7.974535E-1,-4.4830462E-1,2.4502411E-1,-1.6471924E-1,-7.673458E-1,1.135032E-2,-6.668746E-2,-6.244751E-1,-3.5605766E-3,8.548645E-1,1.34897595E-2,-8.8154785E-3,-5.860379E-2,7.801484E-2,-2.3470875E-2,-5.8752358E-2,3.5386916E-2,-9.0243146E-2,-2.3175294E-2,-3.403433E-2,7.335006E-2,-7.773833E-2,-8.126252E-3,3.7992384E-2,-4.083941E-2,9.641481E-2,3.158648E-2],"categories":[],"categories_nodes":[],"categories_segments":[],"categories_sizes":[],"default_left":[0,0,0,0,0,0,0,0,0,0,0,0,0,0,0,0,0,0,0,0,0,0,0,0,0,0,0,0,0,0,0,0,0,0,0,0,0,0,0,0,0],"id":22,"left_children":[1,3,5,7,9,11,13,15,-1,17,-1,19,-1,21,23,25,27,29,31,33,-1,35,37,39,-1,-1,-1,-1,-1,-1,-1,-1,-1,-1,-1,-1,-1,-1,-1,-1,-1],"loss_changes":[4.640031E0,9.446974E-1,6.669829E0,1.118862E0,4.3865824E-1,7.879224E-1,7.5129523E0,1.0250432E0,0E0,4.5391226E-1,0E0,6.954926E-1,0E0,1.1062205E0,5.8676434E-1,1.017046E-1,1.9529047E0,9.1201377E-1,4.3008518E-1,1.5962418E0,0E0,2.7650487E-1,1.8094255E0,6.849375E-1,0E0,0E0,0E0,0E0,0E0,0E0,0E0,0E0,0E0,0E0,0E0,0E0,0E0,0E0,0E0,0E0,0E0],"parents":[2147483647,0,0,1,1,2,2,3,3,4,4,5,5,6,6,7,7,9,9,11,11,13,13,14,14,15,15,16,16,17,17,18,18,19,19,21,21,22,22,23,23],"right_children":[2,4,6,8,10,12,14,16,-1,18,-1,20,-1,22,24,26,28,30,32,34,-1,36,38,40,-1,-1,-1,-1,-1,-1,-1,-1,-1,-1,-1,-1,-1,-1,-1,-1,-1],"split_conditions":[5.1E1,4.9E1,5.1E1,7.9E1,4.7E1,6.6E1,5.1E1,4.3E1,-6.936783E-2,3.2E1,-7.333064E-3,8.1E1,-8.28911E-2,4.5E1,9.4E1,3.2E1,5.7E1,6.8E1,9E1,7.5E1,-6.668746E-2,8.6E1,3.1E1,9.3E1,1.34897595E-2,-8.8154785E-3,-5.860379E-2,7.801484E-2,-2.3470875E-2,-5.8752358E-2,3.5386916E-2,-9.0243146E-2,-2.3175294E-2,-3.403433E-2,7.335006E-2,-7.773833E-2,-8.126252E-3,3.7992384E-2,-4.083941E-2,9.641481E-2,3.158648E-2],"split_indices":[1,2,2,0,1,1,0,3,0,3,0,4,0,3,4,3,3,0,3,4,0,4,0,2,0,0,0,0,0,0,0,0,0,0,0,0,0,0,0,0,0],"split_type":[0,0,0,0,0,0,0,0,0,0,0,0,0,0,0,0,0,0,0,0,0,0,0,0,0,0,0,0,0,0,0,0,0,0,0,0,0,0,0,0,0],"sum_hessian":[6.1428566E1,2.1602991E1,3.9825573E1,9.821376E0,1.1781615E1,9.623044E0,3.0202532E1,7.9857516E0,1.8356239E0,1.0046346E1,1.7352699E0,5.6065297E0,4.016514E0,1.2745143E1,1.7457388E1,2.0917823E0,5.8939695E0,2.2112684E0,7.835077E0,4.302083E0,1.3044467E0,3.0894568E0,9.655685E0,1.5798209E1,1.6591793E0,1.0323629E0,1.0594194E0,2.4901192E0,3.4038503E0,1.1449026E0,1.066366E0,5.7099977E0,2.1250792E0,3.2486632E0,1.0534196E0,2.0744405E0,1.0150163E0,4.9901886E0,4.6654973E0,1.2479238E1,3.3189719E0],"tree_param":{"num_deleted":"0","num_feature":"5","num_nodes":"41","size_leaf_vector":"1"}},{"base_weights":[-4.496113E-2,-3.0898103E-1,2.1002755E-1,-4.0898123E-1,2.0242068E-1,-1.9571002E-1,6.652858E-1,-5.6747055E-1,-6.088264E-2,6.559262E-1,-6.512796E-2,-5.9305537E-1,9.158052E-2,-3.993022E-1,9.653785E-2,-1.9451867E-1,-6.764516E-1,-3.909295E-1,4.0233836E-1,9.673433E-2,-6.511368E-3,1.9143648E-2,-7.933997E-1,1.0486374E-1,-1.523113E-1,1.7284721E-2,-6.792176E-2,-6.857666E-2,2.0455565E-2,-8.301658E-2,-2.3029396E-2,1.4755345E-2,-6.0938805E-2,6.718543E-2,-1.0830889E-3,-8.822338E-2,-2.0770242E-2,-4.9458407E-2,3.0285478E-2],"categories":[],"categories_nodes":[],"categories_segments":[],"categories_sizes":[],"default_left":[0,0,0,0,0,0,0,0,0,0,0,0,0,0,0,0,0,0,0,0,0,0,0,0,0,0,0,0,0,0,0,0,0,0,0,0,0,0,0],"id":23,"left_children":[1,3,5,7,9,11,13,15,17,19,-1,21,23,25,-1,27,29,31,33,-1,-1,-1,35,-1,37,-1,-1,-1,-1,-1,-1,-1,-1,-1,-1,-1,-1,-1,-1],"loss_changes":[4.122823E0,1.6179359E0,5.9040236E0,1.3689575E0,2.5870285E0,2.029234E0,5.163981E0,5.7403183E-1,1.5453498E0,9.929408E-1,0E0,1.3139138E0,2.7056239E0,7.5745714E-1,0E0,1.1850799E0,7.0250225E-1,7.732517E-1,4.8279703E-1,0E0,0E0,0E0,1.3330007E-1,0E0,1.6399571E0,0E0,0E0,0E0,0E0,0E0,0E0,0E0,0E0,0E0,0E0,0E0,0E0,0E0,0E0],"parents":[2147483647,0,0,1,1,2,2,3,3,4,4,5,5,6,6,7,7,8,8,9,9,11,11,12,12,13,13,15,15,16,16,17,17,18,18,22,22,24,24],"right_children":[2,4,6,8,10,12,14,16,18,20,-1,22,24,26,-1,28,30,32,34,-1,-1,-1,36,-1,38,-1,-1,-1,-1,-1,-1,-1,-1,-1,-1,-1,-1,-1,-1],"split_conditions":[5.8E1,8.7E1,5.7E1,7.4E1,9.4E1,6.5E1,5.1E1,3.6E1,4.8E1,5.7E1,-6.512796E-2,6.6E1,6.7E1,6.4E1,9.653785E-2,4.9E1,6.4E1,4.4E1,5.4E1,9.673433E-2,-6.511368E-3,1.9143648E-2,4.7E1,1.0486374E-1,8.6E1,1.7284721E-2,-6.792176E-2,-6.857666E-2,2.0455565E-2,-8.301658E-2,-2.3029396E-2,1.4755345E-2,-6.0938805E-2,6.718543E-2,-1.0830889E-3,-8.822338E-2,-2.0770242E-2,-4.9458407E-2,3.0285478E-2],"split_indices":[1,3,0,0,3,2,2,2,1,0,0,1,2,1,0,4,3,4,3,0,0,0,0,0,2,0,0,0,0,0,0,0,0,0,0,0,0,0,0],"split_type":[0,0,0,0,0,0,0,0,0,0,0,0,0,0,0,0,0,0,0,0,0,0,0,0,0,0,0,0,0,0,0,0,0,0,0,0,0,0,0],"sum_hessian":[5.9276337E1,2.9018408E1,3.0257929E1,2.4439707E1,4.5787E0,1.6300568E1,1.3957361E1,1.6360546E1,8.079161E0,3.1415188E0,1.4371815E0,6.393521E0,9.907046E0,2.996519E0,1.0960842E1,4.3294177E0,1.2031129E1,4.808878E0,3.2702827E0,1.9553909E0,1.1861278E0,1.3096731E0,5.083848E0,1.3418574E0,8.565189E0,1.1100564E0,1.8864628E0,1.6185908E0,2.710827E0,8.308061E0,3.7230682E0,1.4815487E0,3.3273292E0,1.6002913E0,1.6699915E0,3.974699E0,1.1091489E0,4.8394504E0,3.725739E0],"tree_param":{"num_deleted":"0","num_feature":"5","num_nodes":"39","size_leaf_vector":"1"}},{"base_weights":[-4.3204162E-2,-3.5841158E-1,1.4681152E-1,-1.4576562E-1,-5.224099E-1,-2.1165402E-1,5.29829E-1,-5.8987457E-1,3.320128E-1,-1.6311665E-1,-7.689346E-1,6.298675E-2,-2.9081246E-1,-7.5050436E-2,7.734849E-1,-8.630011E-3,-6.797332E-1,-2.7308289E-2,5.8247834E-1,-4.0247348E-1,5.0582476E-2,4.04067E-3,-9.489093E-2,-5.2977186E-1,1.084919E-1,1.898611E-2,8.508189E-1,-1.846045E-2,-7.826314E-2,-1.5447818E-3,9.083791E-2,6.033912E-3,-7.195408E-2,-7.3503435E-2,9.78816E-3,6.277847E-2,-5.8657076E-2,3.178501E-2,9.41736E-2],"categories":[],"categories_nodes":[],"categories_segments":[],"categories_sizes":[],"default_left":[0,0,0,0,0,0,0,0,0,0,0,0,0,0,0,0,0,0,0,0,0,0,0,0,0,0,0,0,0,0,0,0,0,0,0,0,0,0,0],"id":24,"left_children":[1,3,5,7,9,11,13,15,17,19,21,-1,23,-1,25,-1,27,-1,29,31,-1,-1,-1,33,35,-1,37,-1,-1,-1,-1,-1,-1,-1,-1,-1,-1,-1,-1],"loss_changes":[3.5505862E0,6.9999146E-1,5.212296E0,2.5463624E0,9.5325375E-1,1.5089676E0,6.2718143E0,2.1742368E-1,1.0648198E0,1.2002863E0,1.0511651E0,0E0,1.8585495E0,0E0,5.5245304E-1,0E0,1.1189079E-1,0E0,8.998835E-1,7.978792E-1,0E0,0E0,0E0,1.615221E0,3.2185519E0,0E0,3.6360264E-1,0E0,0E0,0E0,0E0,0E0,0E0,0E0,0E0,0E0,0E0,0E0,0E0],"parents":[2147483647,0,0,1,1,2,2,3,3,4,4,5,5,6,6,7,7,8,8,9,9,10,10,12,12,14,14,16,16,18,18,19,19,23,23,24,24,26,26],"right_children":[2,4,6,8,10,12,14,16,18,20,22,-1,24,-1,26,-1,28,-1,30,32,-1,-1,-1,34,36,-1,38,-1,-1,-1,-1,-1,-1,-1,-1,-1,-1,-1,-1],"split_conditions":[5.2E1,5.7E1,5.7E1,4.5E1,5.4E1,2.4E1,4.1E1,2.4E1,4E1,8.7E1,3.3E1,6.298675E-2,7.5E1,-7.5050436E-2,5.1E1,-8.630011E-3,2.8E1,-2.7308289E-2,3.4E1,4.4E1,5.0582476E-2,4.04067E-3,-9.489093E-2,4.6E1,7.3E1,1.898611E-2,5.8E1,-1.846045E-2,-7.826314E-2,-1.5447818E-3,9.083791E-2,6.033912E-3,-7.195408E-2,-7.3503435E-2,9.78816E-3,6.277847E-2,-5.8657076E-2,3.178501E-2,9.41736E-2],"split_indices":[1,0,0,0,3,4,2,1,3,4,4,0,4,0,2,0,2,0,1,4,0,0,0,0,1,0,1,0,0,0,0,0,0,0,0,0,0,0,0],"split_type":[0,0,0,0,0,0,0,0,0,0,0,0,0,0,0,0,0,0,0,0,0,0,0,0,0,0,0,0,0,0,0,0,0,0,0,0,0,0,0],"sum_hessian":[5.7402294E1,2.1255836E1,3.6146458E1,1.0077641E1,1.1178196E1,1.8902779E1,1.724368E1,5.1012554E0,4.976385E0,5.224907E0,5.953289E0,1.0270731E0,1.7875706E1,2.424344E0,1.4819335E1,1.0692877E0,4.031968E0,1.430401E0,3.545984E0,4.141398E0,1.0835088E0,1.2240876E0,4.7292013E0,1.0978814E1,6.8968906E0,2.13816E0,1.2681174E1,1.1745038E0,2.857464E0,1.5869765E0,1.9590075E0,2.0129125E0,2.1284854E0,8.144292E0,2.834523E0,4.002987E0,2.893904E0,2.5031881E0,1.0177987E1],"tree_param":{"num_deleted":"0","num_feature":"5","num_nodes":"39","size_leaf_vector":"1"}},{"base_weights":[-4.20657E-2,-2.7735135E-1,1.925074E-1,-3.7463236E-1,2.0871787E-1,-7.975929E-2,3.4678653E-1,-5.3172785E-1,-3.3164095E-2,6.157637E-1,-6.1693933E-2,-6.296821E-2,8.411953E-1,-7.313303E-1,-2.8811166E-1,-2.780302E-1,5.033564E-1,9.07893E-2,-2.0806643E-4,5.93786E-2,-1.841483E-1,1.0563719E-2,9.186141E-2,8.514654E-3,-9.121963E-2,2.6376778E-3,-6.180648E-2,1.10652E-2,-7.193866E-2,1.4853715E-2,6.126445E-2,2.8348172E-2,-5.1898003E-2],"categories":[],"categories_nodes":[],"categories_segments":[],"categories_sizes":[],"default_left":[0,0,0,0,0,0,0,0,0,0,0,0,0,0,0,0,0,0,0,0,0,0,0,0,0,0,0,0,0,0,0,0,0],"id":25,"left_children":[1,3,5,7,9,-1,11,13,15,17,-1,19,21,23,25,27,29,-1,-1,-1,31,-1,-1,-1,-1,-1,-1,-1,-1,-1,-1,-1,-1],"loss_changes":[3.1680572E0,1.4297819E0,4.6834655E0,1.2791781E0,2.1977148E0,0E0,5.250819E0,5.911889E-1,1.2808026E0,7.461103E-1,0E0,1.2999601E0,5.6907177E-1,1.3202224E0,9.581579E-1,1.2129779E0,2.8322816E-2,0E0,0E0,0E0,2.244179E0,0E0,0E0,0E0,0E0,0E0,0E0,0E0,0E0,0E0,0E0,0E0,0E0],"parents":[2147483647,0,0,1,1,2,2,3,3,4,4,6,6,7,7,8,8,9,9,11,11,12,12,13,13,14,14,15,15,16,16,20,20],"right_children":[2,4,6,8,10,-1,12,14,16,18,-1,20,22,24,26,28,30,-1,-1,-1,32,-1,-1,-1,-1,-1,-1,-1,-1,-1,-1,-1,-1],"split_conditions":[5.8E1,8.7E1,4.2E1,7.4E1,9.4E1,-7.975929E-2,5.7E1,5.1E1,5.2E1,6.4E1,-6.1693933E-2,2.9E1,5.1E1,3.2E1,5.8E1,5.4E1,4.8E1,9.07893E-2,-2.0806643E-4,5.93786E-2,7.3E1,1.0563719E-2,9.186141E-2,8.514654E-3,-9.121963E-2,2.6376778E-3,-6.180648E-2,1.10652E-2,-7.193866E-2,1.4853715E-2,6.126445E-2,2.8348172E-2,-5.1898003E-2],"split_indices":[1,3,2,0,3,0,0,3,1,2,0,4,2,2,4,3,2,0,0,0,1,0,0,0,0,0,0,0,0,0,0,0,0],"split_type":[0,0,0,0,0,0,0,0,0,0,0,0,0,0,0,0,0,0,0,0,0,0,0,0,0,0,0,0,0,0,0,0,0],"sum_hessian":[5.543359E1,2.7583717E1,2.7849874E1,2.3174814E1,4.408903E0,3.1924205E0,2.4657454E1,1.5490906E1,7.683908E0,3.123328E0,1.2855752E0,1.3960197E1,1.0697255E1,7.4142213E0,8.076684E0,5.6067824E0,2.077126E0,1.8019006E0,1.3214273E0,1.5670888E0,1.2393109E1,1.2438539E0,9.453402E0,1.4405277E0,5.9736934E0,4.60632E0,3.4703646E0,3.3797147E0,2.2270675E0,1.0446514E0,1.0324745E0,5.235086E0,7.1580234E0],"tree_param":{"num_deleted":"0","num_feature":"5","num_nodes":"33","size_leaf_vector":"1"}},{"base_weights":[-3.9904602E-2,-6.482766E-1,4.1976694E-2,-1.1909126E-2,-7.272911E-1,-2.941545E-1,2.1109284E-1,-8.3081484E-2,-1.5195571E-2,-5.6842977E-1,2.670629E-1,-2.8941756E-1,3.8915557E-1,-7.3379296E-1,2.4502227E-2,1.19176924E-1,-2.7971733E-1,7.361934E-2,-5.294609E-1,-1.19793355E-1,5.4640305E-1,-2.0203048E-2,-9.383519E-2,-7.265793E-2,2.476938E-2,3.541518E-3,-6.791247E-2,4.3215882E-2,-5.1630076E-2,-1.807969E-3,6.861078E-2],"categories":[],"categories_nodes":[],"categories_segments":[],"categories_sizes":[],"default_left":[0,0,0,0,0,0,0,0,0,0,0,0,0,0,0,0,0,0,0,0,0,0,0,0,0,0,0,0,0,0,0],"id":26,"left_children":[1,3,5,-1,7,9,11,-1,-1,13,15,17,19,21,-1,-1,23,-1,25,27,29,-1,-1,-1,-1,-1,-1,-1,-1,-1,-1],"loss_changes":[2.758644E0,1.8790269E-1,2.8626866E0,0E0,2.023232E-1,2.7544878E0,3.085619E0,0E0,0E0,1.7505786E0,3.483845E0,2.686018E0,2.0687523E0,8.932862E-1,0E0,0E0,1.2936983E0,0E0,7.1219707E-1,1.6956925E0,1.5346551E0,0E0,0E0,0E0,0E0,0E0,0E0,0E0,0E0,0E0,0E0],"parents":[2147483647,0,0,1,1,2,2,4,4,5,5,6,6,9,9,10,10,11,11,12,12,13,13,16,16,18,18,19,19,20,20],"right_children":[2,4,6,-1,8,10,12,-1,-1,14,16,18,20,22,-1,-1,24,-1,26,28,30,-1,-1,-1,-1,-1,-1,-1,-1,-1,-1],"split_conditions":[3.1E1,3.2E1,4.5E1,-1.1909126E-2,8.3E1,7.5E1,4.3E1,-8.3081484E-2,-1.5195571E-2,8.9E1,8.1E1,3.7E1,5.1E1,2.6E1,2.4502227E-2,1.19176924E-1,6.5E1,7.361934E-2,3.2E1,4.5E1,5.3E1,-2.0203048E-2,-9.383519E-2,-7.265793E-2,2.476938E-2,3.541518E-3,-6.791247E-2,4.3215882E-2,-5.1630076E-2,-1.807969E-3,6.861078E-2],"split_indices":[2,0,0,0,4,4,1,0,0,1,4,2,2,0,0,0,2,0,3,3,1,0,0,0,0,0,0,0,0,0,0],"split_type":[0,0,0,0,0,0,0,0,0,0,0,0,0,0,0,0,0,0,0,0,0,0,0,0,0,0,0,0,0,0,0],"sum_hessian":[5.3832287E1,5.5652933E0,4.8266994E1,1.0487419E0,4.5165515E0,1.5908426E1,3.2358566E1,3.4514563E0,1.0650952E0,1.0677381E1,5.2310457E0,8.327031E0,2.4031536E1,8.954904E0,1.722477E0,1.5054458E0,3.7255998E0,1.18729E0,7.1397414E0,5.72857E0,1.8302967E1,3.0399694E0,5.914934E0,1.8123817E0,1.9132181E0,1.6553434E0,5.484398E0,2.3572636E0,3.3713067E0,3.8038692E0,1.4499097E1],"tree_param":{"num_deleted":"0","num_feature":"5","num_nodes":"31","size_leaf_vector":"1"}},{"base_weights":[-3.883289E-2,-6.267597E-1,3.9276622E-2,-1.13505395E-2,-7.0660174E-1,-2.7473733E-1,1.9739747E-1,-8.127769E-2,-1.4494503E-2,-5.4266906E-1,2.4899057E-1,-1.8915987E-1,3.9851028E-1,5.241873E-3,-8.2199645E-1,1.0759326E-1,-2.6653677E-1,7.726639E-2,-4.215468E-1,-2.4725403E-1,5.9280664E-1,7.4990824E-2,-5.0094277E-2,-1.811957E-2,-9.132177E-2,-5.7370573E-2,4.2259745E-2,4.8129223E-2,-5.828945E-2,1.5736764E-2,-6.916661E-2,9.005683E-2,3.459141E-2],"categories":[],"categories_nodes":[],"categories_segments":[],"categories_sizes":[],"default_left":[0,0,0,0,0,0,0,0,0,0,0,0,0,0,0,0,0,0,0,0,0,0,0,0,0,0,0,0,0,0,0,0,0],"id":27,"left_children":[1,3,5,-1,7,9,11,-1,-1,13,15,17,19,21,23,-1,25,-1,27,29,31,-1,-1,-1,-1,-1,-1,-1,-1,-1,-1,-1,-1],"loss_changes":[2.4699748E0,1.7812228E-1,2.4348376E0,0E0,1.9609475E-1,2.447001E0,2.5996737E0,0E0,0E0,1.720561E0,2.9561086E0,2.9609838E0,2.8667748E0,2.1774979E0,2.6906538E-1,0E0,1.2285464E0,0E0,1.7580583E0,1.1374164E0,9.7717905E-1,0E0,0E0,0E0,0E0,0E0,0E0,0E0,0E0,0E0,0E0,0E0,0E0],"parents":[2147483647,0,0,1,1,2,2,4,4,5,5,6,6,9,9,10,10,11,11,12,12,13,13,14,14,16,16,18,18,19,19,20,20],"right_children":[2,4,6,-1,8,10,12,-1,-1,14,16,18,20,22,24,-1,26,-1,28,30,32,-1,-1,-1,-1,-1,-1,-1,-1,-1,-1,-1,-1],"split_conditions":[3.1E1,3.2E1,4.5E1,-1.13505395E-2,8.3E1,7.5E1,4.8E1,-8.127769E-2,-1.4494503E-2,3.8E1,8.1E1,3.7E1,5.1E1,2.6E1,2.3E1,1.0759326E-1,7.4E1,7.726639E-2,5E1,6E1,7.1E1,7.4990824E-2,-5.0094277E-2,-1.811957E-2,-9.132177E-2,-5.7370573E-2,4.2259745E-2,4.8129223E-2,-5.828945E-2,1.5736764E-2,-6.916661E-2,9.005683E-2,3.459141E-2],"split_indices":[2,0,0,0,4,4,1,0,0,4,4,2,2,0,0,0,2,0,0,1,2,0,0,0,0,0,0,0,0,0,0,0,0],"split_type":[0,0,0,0,0,0,0,0,0,0,0,0,0,0,0,0,0,0,0,0,0,0,0,0,0,0,0,0,0,0,0,0,0],"sum_hessian":[5.2249466E1,5.3038106E0,4.6945656E1,1.0399903E0,4.26382E0,1.5475391E1,3.1470264E1,3.2099144E0,1.0539057E0,1.0213926E1,5.2614655E0,1.0790112E1,2.0680153E1,3.780186E0,6.43374E0,1.6030339E0,3.6584315E0,1.6472838E0,9.142827E0,4.720041E0,1.5960113E1,1.3348901E0,2.4452958E0,1.1738861E0,5.259854E0,2.6463618E0,1.0120696E0,1.085552E0,8.057276E0,2.8087077E0,1.9113333E0,5.925777E0,1.0034336E1],"tree_param":{"num_deleted":"0","num_feature":"5","num_nodes":"33","size_leaf_vector":"1"}},{"base_weights":[-3.604439E-2,-6.057016E-1,3.8734585E-2,-1.0818219E-2,-6.862213E-1,-1.0288655E-1,3.6795476E-1,-7.9491355E-2,-1.3825782E-2,-3.4344032E-1,1.8370424E-1,-1.957924E-1,6.9119644E-1,-4.666893E-1,3.5196275E-1,4.1711745E-1,-2.2419901E-1,2.5690213E-1,-6.999447E-2,7.4915364E-3,8.328096E-1,3.663626E-3,-5.2660078E-2,-8.2977405E-3,6.706555E-2,-6.0125845E-3,7.491048E-2,2.5859073E-2,-7.231802E-2,4.8892647E-2,-1.540438E-2,9.282492E-2,2.7975148E-2],"categories":[],"categories_nodes":[],"categories_segments":[],"categories_sizes":[],"default_left":[0,0,0,0,0,0,0,0,0,0,0,0,0,0,0,0,0,0,0,0,0,0,0,0,0,0,0,0,0,0,0,0,0],"id":28,"left_children":[1,3,5,-1,7,9,11,-1,-1,13,15,17,19,21,23,25,27,29,-1,-1,31,-1,-1,-1,-1,-1,-1,-1,-1,-1,-1,-1,-1],"loss_changes":[2.2270947E0,1.6863918E-1,2.2137146E0,0E0,1.8974614E-1,2.3665512E0,2.733036E0,0E0,0E0,1.7510178E0,1.6072285E0,1.5433098E0,7.476015E-1,5.064857E-1,5.210146E-1,1.7025921E0,1.7376703E0,4.4520488E-1,0E0,0E0,1.3345575E-1,0E0,0E0,0E0,0E0,0E0,0E0,0E0,0E0,0E0,0E0,0E0,0E0],"parents":[2147483647,0,0,1,1,2,2,4,4,5,5,6,6,9,9,10,10,11,11,12,12,13,13,14,14,15,15,16,16,17,17,20,20],"right_children":[2,4,6,-1,8,10,12,-1,-1,14,16,18,20,22,24,26,28,30,-1,-1,32,-1,-1,-1,-1,-1,-1,-1,-1,-1,-1,-1,-1],"split_conditions":[3.1E1,3.2E1,7.4E1,-1.0818219E-2,8.3E1,6.4E1,5.2E1,-7.9491355E-2,-1.3825782E-2,8.9E1,7.2E1,5.4E1,5.1E1,3.6E1,8.6E1,4.7E1,6E1,7.9E1,-6.999447E-2,7.4915364E-3,7.4E1,3.663626E-3,-5.2660078E-2,-8.2977405E-3,6.706555E-2,-6.0125845E-3,7.491048E-2,2.5859073E-2,-7.231802E-2,4.8892647E-2,-1.540438E-2,9.282492E-2,2.7975148E-2],"split_indices":[2,0,0,0,4,3,1,0,0,1,1,3,2,2,2,1,4,2,0,0,3,0,0,0,0,0,0,0,0,0,0,0,0],"split_type":[0,0,0,0,0,0,0,0,0,0,0,0,0,0,0,0,0,0,0,0,0,0,0,0,0,0,0,0,0,0,0,0,0],"sum_hessian":[5.0730434E1,5.062793E0,4.566764E1,1.0316885E0,4.0311046E0,3.2412285E1,1.3255357E1,2.9877882E0,1.0433165E0,1.7513626E1,1.4898659E1,4.9742823E0,8.281075E0,1.5156308E1,2.3573172E0,9.461783E0,5.4368753E0,2.8792968E0,2.0949855E0,1.8330235E0,6.448051E0,1.6534986E0,1.350281E1,1.3096234E0,1.047694E0,4.2176523E0,5.2441306E0,3.0081244E0,2.4287512E0,1.7189826E0,1.1603142E0,4.9205356E0,1.5275155E0],"tree_param":{"num_deleted":"0","num_feature":"5","num_nodes":"33","size_leaf_vector":"1"}},{"base_weights":[-3.286945E-2,-5.851133E-1,3.7981156E-2,-2.2966173E-1,-7.671658E-2,-2.4984835E-1,1.8328528E-1,-5.9152372E-2,2.4828723E-2,-5.1832235E-1,2.5552404E-1,-2.3024796E-1,3.301722E-1,1.5667986E-2,-7.9140365E-1,9.8192655E-2,-2.328306E-1,6.0958672E-2,-4.6179658E-1,-1.01357184E-1,4.6995735E-1,6.939735E-2,-4.856756E-2,-9.0556584E-2,-4.904499E-3,-5.4018743E-2,4.082403E-2,7.171073E-3,-6.188429E-2,2.6009053E-2,-6.766139E-2,-2.7311346E-3,6.0302287E-2],"categories":[],"categories_nodes":[],"categories_segments":[],"categories_sizes":[],"default_left":[0,0,0,0,0,0,0,0,0,0,0,0,0,0,0,0,0,0,0,0,0,0,0,0,0,0,0,0,0,0,0,0,0],"id":29,"left_children":[1,3,5,7,-1,9,11,-1,-1,13,15,17,19,21,23,-1,25,-1,27,29,31,-1,-1,-1,-1,-1,-1,-1,-1,-1,-1,-1,-1],"loss_changes":[2.011031E0,2.0176733E-1,1.9691873E0,7.3585695E-1,0E0,2.2831254E0,1.9674188E0,0E0,0E0,1.57009E0,2.4170723E0,1.9831374E0,1.4583972E0,1.8996344E0,5.562129E-1,0E0,1.1066746E0,0E0,6.667564E-1,1.536823E0,1.1971018E0,0E0,0E0,0E0,0E0,0E0,0E0,0E0,0E0,0E0,0E0,0E0,0E0],"parents":[2147483647,0,0,1,1,2,2,3,3,5,5,6,6,9,9,10,10,11,11,12,12,13,13,14,14,16,16,18,18,19,19,20,20],"right_children":[2,4,6,8,-1,10,12,-1,-1,14,16,18,20,22,24,-1,26,-1,28,30,32,-1,-1,-1,-1,-1,-1,-1,-1,-1,-1,-1,-1],"split_conditions":[3.1E1,5.7E1,4.5E1,4.5E1,-7.671658E-2,7.5E1,4.3E1,-5.9152372E-2,2.4828723E-2,2.6E1,8.1E1,3.7E1,5.1E1,3.8E1,8.9E1,9.8192655E-2,7.4E1,6.0958672E-2,3.2E1,6E1,5.3E1,6.939735E-2,-4.856756E-2,-9.0556584E-2,-4.904499E-3,-5.4018743E-2,4.082403E-2,7.171073E-3,-6.188429E-2,2.6009053E-2,-6.766139E-2,-2.7311346E-3,6.0302287E-2],"split_indices":[2,3,0,3,0,4,1,0,0,0,4,2,2,4,1,0,2,0,3,1,1,0,0,0,0,0,0,0,0,0,0,0,0],"split_type":[0,0,0,0,0,0,0,0,0,0,0,0,0,0,0,0,0,0,0,0,0,0,0,0,0,0,0,0,0,0,0,0,0],"sum_hessian":[4.982979E1,4.8406916E0,4.4989098E1,2.4055152E0,2.4351764E0,1.4851208E1,3.013789E1,1.2337762E0,1.1717391E0,9.682076E0,5.1691303E0,7.7504363E0,2.2387453E1,3.5949812E0,6.0870957E0,1.671772E0,3.4973583E0,1.322183E0,6.428253E0,5.5448637E0,1.684259E1,1.3645506E0,2.2304306E0,5.0852246E0,1.001871E0,2.4703393E0,1.0270191E0,1.5854944E0,4.8427587E0,3.7417204E0,1.8031433E0,3.7232988E0,1.3119291E1],"tree_param":{"num_deleted":"0","num_feature":"5","num_nodes":"33","size_leaf_vector":"1"}},{"base_weights":[-3.266397E-2,-5.6625086E-1,3.518118E-2,-2.0278445E-1,-7.469982E-2,-9.227225E-2,3.405802E-1,-5.8131885E-2,2.9501695E-2,-3.2522744E-1,1.8058899E-1,-1.7581314E-1,6.5294784E-1,-4.4064277E-1,3.1635198E-1,3.5290223E-1,-3.1904384E-1,2.3967391E-1,-6.660287E-2,7.984849E-3,7.930718E-1,-3.3321787E-2,-9.2198074E-2,-9.096083E-3,6.1644346E-2,4.9259316E-2,-3.8619056E-2,5.51243E-2,-7.3667295E-2,5.1528703E-2,-1.148311E-2,8.960054E-2,2.3814224E-2],"categories":[],"categories_nodes":[],"categories_segments":[],"categories_sizes":[],"default_left":[0,0,0,0,0,0,0,0,0,0,0,0,0,0,0,0,0,0,0,0,0,0,0,0,0,0,0,0,0,0,0,0,0],"id":30,"left_children":[1,3,5,7,-1,9,11,-1,-1,13,15,17,19,21,23,25,27,29,-1,-1,31,-1,-1,-1,-1,-1,-1,-1,-1,-1,-1,-1,-1],"loss_changes":[1.8118122E0,2.1918595E-1,1.7774011E0,7.832581E-1,0E0,2.1204352E0,2.2796612E0,0E0,0E0,1.4614469E0,1.4540062E0,1.3504038E0,6.252594E-1,4.9681973E-1,4.5994762E-1,1.435383E0,2.0491865E0,4.4019932E-1,0E0,0E0,1.7379141E-1,0E0,0E0,0E0,0E0,0E0,0E0,0E0,0E0,0E0,0E0,0E0,0E0],"parents":[2147483647,0,0,1,1,2,2,3,3,5,5,6,6,9,9,10,10,11,11,12,12,13,13,14,14,15,15,16,16,17,17,20,20],"right_children":[2,4,6,8,-1,10,12,-1,-1,14,16,18,20,22,24,26,28,30,-1,-1,32,-1,-1,-1,-1,-1,-1,-1,-1,-1,-1,-1,-1],"split_conditions":[3.1E1,4E1,7.4E1,3.4E1,-7.469982E-2,6.4E1,5.2E1,-5.8131885E-2,2.9501695E-2,8.9E1,8.3E1,5.4E1,5.1E1,9.4E1,8.6E1,9.4E1,3.8E1,8.1E1,-6.660287E-2,7.984849E-3,7.4E1,-3.3321787E-2,-9.2198074E-2,-9.096083E-3,6.1644346E-2,4.9259316E-2,-3.8619056E-2,5.51243E-2,-7.3667295E-2,5.1528703E-2,-1.148311E-2,8.960054E-2,2.3814224E-2],"split_indices":[2,1,0,1,0,3,1,0,0,1,1,3,2,2,2,3,4,0,0,0,3,0,0,0,0,0,0,0,0,0,0,0,0],"split_type":[0,0,0,0,0,0,0,0,0,0,0,0,0,0,0,0,0,0,0,0,0,0,0,0,0,0,0,0,0,0,0,0,0],"sum_hessian":[4.849799E1,4.6421666E0,4.3855824E1,2.246527E0,2.3956397E0,3.143485E1,1.2420973E1,1.1808336E0,1.0656933E0,1.6853914E1,1.4580936E1,4.8463492E0,7.574624E0,1.4549719E1,2.3041954E0,1.1060182E1,3.5207553E0,2.8997347E0,1.9466143E0,1.7965745E0,5.7780495E0,1.32785E1,1.2712193E0,1.2731053E0,1.0310901E0,9.582562E0,1.4776187E0,1.0379218E0,2.4828336E0,1.3762317E0,1.5235032E0,4.3555183E0,1.4225314E0],"tree_param":{"num_deleted":"0","num_feature":"5","num_nodes":"33","size_leaf_vector":"1"}},{"base_weights":[-3.190247E-2,-2.1188243E-1,1.5686293E-1,-3.1407547E-1,2.6324263E-1,-7.32701E-2,2.877285E-1,-4.6204013E-1,3.0722665E-3,-1.1046584E-1,7.0893645E-2,-3.7488233E-2,7.5264287E-1,1.1486991E-2,-5.320653E-1,2.6251453E-1,-3.5130033E-1,3.653814E-2,-5.906349E-2,2.7338675E-1,-3.5573503E-1,8.919307E-2,1.7177355E-2,-2.9344875E-2,-7.971459E-2,6.1306603E-2,-1.4643227E-2,-6.5556034E-2,9.4037125E-4,-3.331765E-2,4.9066138E-2,2.5680983E-2,-5.5407442E-2],"categories":[],"categories_nodes":[],"categories_segments":[],"categories_sizes":[],"default_left":[0,0,0,0,0,0,0,0,0,0,0,0,0,0,0,0,0,0,0,0,0,0,0,0,0,0,0,0,0,0,0,0,0],"id":31,"left_children":[1,3,5,7,9,-1,11,13,15,17,-1,19,21,-1,23,25,27,-1,-1,29,31,-1,-1,-1,-1,-1,-1,-1,-1,-1,-1,-1,-1],"loss_changes":[1.6906983E0,1.3159457E0,3.049735E0,1.003752E0,9.177911E-1,0E0,3.3511071E0,6.497655E-1,8.082846E-1,1.0398755E0,0E0,1.4708577E0,5.825019E-1,0E0,5.992091E-1,8.164214E-1,4.143861E-1,0E0,0E0,1.163604E0,1.0285945E0,0E0,0E0,0E0,0E0,0E0,0E0,0E0,0E0,0E0,0E0,0E0,0E0],"parents":[2147483647,0,0,1,1,2,2,3,3,4,4,6,6,7,7,8,8,9,9,11,11,12,12,14,14,15,15,16,16,19,19,20,20],"right_children":[2,4,6,8,10,-1,12,14,16,18,-1,20,22,-1,24,26,28,-1,-1,30,32,-1,-1,-1,-1,-1,-1,-1,-1,-1,-1,-1,-1],"split_conditions":[5.8E1,8.7E1,4.2E1,7.4E1,4.3E1,-7.32701E-2,5.7E1,2.5E1,5.4E1,5.4E1,7.0893645E-2,3.4E1,7.5E1,1.1486991E-2,6.8E1,8.1E1,8.6E1,3.653814E-2,-5.906349E-2,6.5E1,6.5E1,8.919307E-2,1.7177355E-2,-2.9344875E-2,-7.971459E-2,6.1306603E-2,-1.4643227E-2,-6.5556034E-2,9.4037125E-4,-3.331765E-2,4.9066138E-2,2.5680983E-2,-5.5407442E-2],"split_indices":[1,3,2,0,1,0,0,2,3,4,0,0,3,0,4,0,0,0,0,2,1,0,0,0,0,0,0,0,0,0,0,0,0],"split_type":[0,0,0,0,0,0,0,0,0,0,0,0,0,0,0,0,0,0,0,0,0,0,0,0,0,0,0,0,0,0,0,0,0],"sum_hessian":[4.77862E1,2.4399668E1,2.3386534E1,2.035956E1,4.040107E0,2.4094331E0,2.09771E1,1.357112E1,6.7884398E0,2.60663E0,1.4334768E0,1.2883915E1,8.093185E0,1.3996378E0,1.2171483E1,4.0688086E0,2.7196312E0,1.4292756E0,1.1773545E0,6.5887475E0,6.295167E0,6.095922E0,1.9972636E0,7.5143433E0,4.6571393E0,1.9220675E0,2.1467412E0,1.0318239E0,1.6878073E0,1.5969961E0,4.9917517E0,1.4676683E0,4.8274984E0],"tree_param":{"num_deleted":"0","num_feature":"5","num_nodes":"33","size_leaf_vector":"1"}},{"base_weights":[-3.052242E-2,-5.382546E-1,3.258751E-2,-1.900406E-1,-7.284556E-2,-2.2291632E-1,1.6299146E-1,-5.5782545E-2,2.5933102E-2,-4.9392006E-1,2.6648173E-1,-1.9900444E-1,2.9343012E-1,-7.2659224E-1,8.562462E-2,9.048607E-2,-1.9724232E-1,2.552244E-1,-6.352122E-1,-8.945438E-2,4.2192784E-1,-4.5299823E-3,-8.3003335E-2,5.0673585E-2,-3.8800623E-2,-6.400188E-2,2.3622327E-2,-3.9509337E-2,8.494873E-2,-9.5443325E-3,-7.603351E-2,4.1093152E-2,-4.7634397E-2,5.2608814E-2,-8.955768E-3],"categories":[],"categories_nodes":[],"categories_segments":[],"categories_sizes":[],"default_left":[0,0,0,0,0,0,0,0,0,0,0,0,0,0,0,0,0,0,0,0,0,0,0,0,0,0,0,0,0,0,0,0,0,0,0],"id":32,"left_children":[1,3,5,7,-1,9,11,-1,-1,13,15,17,19,21,23,-1,25,27,29,31,33,-1,-1,-1,-1,-1,-1,-1,-1,-1,-1,-1,-1,-1,-1],"loss_changes":[1.5517887E0,2.1593833E-1,1.4867098E0,6.8065935E-1,0E0,2.1385481E0,1.4465387E0,0E0,0E0,1.4227114E0,1.9672482E0,1.8231331E0,1.1208949E0,4.771793E-1,9.515102E-1,0E0,9.805235E-1,2.1983972E0,2.35605E-1,1.4264209E0,9.346144E-1,0E0,0E0,0E0,0E0,0E0,0E0,0E0,0E0,0E0,0E0,0E0,0E0,0E0,0E0],"parents":[2147483647,0,0,1,1,2,2,3,3,5,5,6,6,9,9,10,10,11,11,12,12,13,13,14,14,16,16,17,17,18,18,19,19,20,20],"right_children":[2,4,6,8,-1,10,12,-1,-1,14,16,18,20,22,24,-1,26,28,30,32,34,-1,-1,-1,-1,-1,-1,-1,-1,-1,-1,-1,-1,-1,-1],"split_conditions":[3.1E1,5.7E1,4.5E1,4.5E1,-7.284556E-2,7.5E1,4.3E1,-5.5782545E-2,2.5933102E-2,8.2E1,8.1E1,5.4E1,5.1E1,3.1E1,7.4E1,9.048607E-2,6.5E1,4.2E1,3E1,4.5E1,9.3E1,-4.5299823E-3,-8.3003335E-2,5.0673585E-2,-3.8800623E-2,-6.400188E-2,2.3622327E-2,-3.9509337E-2,8.494873E-2,-9.5443325E-3,-7.603351E-2,4.1093152E-2,-4.7634397E-2,5.2608814E-2,-8.955768E-3],"split_indices":[2,3,0,3,0,4,1,0,0,1,4,4,2,1,2,0,2,4,3,3,2,0,0,0,0,0,0,0,0,0,0,0,0,0,0],"split_type":[0,0,0,0,0,0,0,0,0,0,0,0,0,0,0,0,0,0,0,0,0,0,0,0,0,0,0,0,0,0,0,0,0,0,0],"sum_hessian":[4.6881004E1,4.350611E0,4.253039E1,2.2431252E0,2.107486E0,1.4131923E1,2.839847E1,1.100821E0,1.1423043E0,9.089422E0,5.0424995E0,7.3830986E0,2.1015371E1,6.304571E0,2.7848516E0,1.7214285E0,3.3210711E0,3.82009E0,3.5630085E0,5.3569922E0,1.565838E1,1.0205914E0,5.2839794E0,1.437159E0,1.3476927E0,1.4071645E0,1.9139066E0,1.9840477E0,1.8360424E0,1.0022388E0,2.5607698E0,2.3087785E0,3.048214E0,1.2985441E1,2.6729386E0],"tree_param":{"num_deleted":"0","num_feature":"5","num_nodes":"35","size_leaf_vector":"1"}},{"base_weights":[-3.1548712E-2,-5.2076983E-1,2.8473012E-2,-1.6599947E-1,-7.105682E-2,-2.0764498E-1,1.4855044E-1,-5.4870512E-2,2.9995335E-2,-4.6799603E-1,2.4613237E-1,-1.8879043E-1,2.6940805E-1,4.7347743E-2,-7.519563E-1,8.26041E-2,-1.8933447E-1,5.837819E-2,-4.2410251E-1,-8.274871E-2,3.8806653E-1,6.471003E-2,-4.368237E-2,-6.1264085E-3,-8.701495E-2,-4.9050353E-2,3.69914E-2,6.130468E-3,-5.8154907E-2,2.5230885E-2,-6.480259E-2,-5.08981E-3,5.203572E-2],"categories":[],"categories_nodes":[],"categories_segments":[],"categories_sizes":[],"default_left":[0,0,0,0,0,0,0,0,0,0,0,0,0,0,0,0,0,0,0,0,0,0,0,0,0,0,0,0,0,0,0,0,0],"id":33,"left_children":[1,3,5,7,-1,9,11,-1,-1,13,15,17,19,21,23,-1,25,-1,27,29,31,-1,-1,-1,-1,-1,-1,-1,-1,-1,-1,-1,-1],"loss_changes":[1.3946362E0,2.3130798E-1,1.2444156E0,7.196388E-1,0E0,1.8691655E0,1.2314283E0,0E0,0E0,1.4665601E0,1.6887368E0,1.7429913E0,9.401649E-1,1.5646127E0,4.662037E-1,0E0,9.021641E-1,0E0,5.618042E-1,1.3569174E0,9.805794E-1,0E0,0E0,0E0,0E0,0E0,0E0,0E0,0E0,0E0,0E0,0E0,0E0],"parents":[2147483647,0,0,1,1,2,2,3,3,5,5,6,6,9,9,10,10,11,11,12,12,13,13,14,14,16,16,18,18,19,19,20,20],"right_children":[2,4,6,8,-1,10,12,-1,-1,14,16,18,20,22,24,-1,26,-1,28,30,32,-1,-1,-1,-1,-1,-1,-1,-1,-1,-1,-1,-1],"split_conditions":[3.1E1,4E1,4.5E1,3.4E1,-7.105682E-2,7.5E1,4.3E1,-5.4870512E-2,2.9995335E-2,2.6E1,8.1E1,3.7E1,5.1E1,3.8E1,3.1E1,8.26041E-2,7.4E1,5.837819E-2,3.2E1,6E1,5.3E1,6.471003E-2,-4.368237E-2,-6.1264085E-3,-8.701495E-2,-4.9050353E-2,3.69914E-2,6.130468E-3,-5.8154907E-2,2.5230885E-2,-6.480259E-2,-5.08981E-3,5.203572E-2],"split_indices":[2,1,0,1,0,4,1,0,0,0,4,2,2,4,4,0,2,0,3,1,1,0,0,0,0,0,0,0,0,0,0,0,0],"split_type":[0,0,0,0,0,0,0,0,0,0,0,0,0,0,0,0,0,0,0,0,0,0,0,0,0,0,0,0,0,0,0,0,0],"sum_hessian":[4.5989956E1,4.186943E0,4.1803013E1,2.1126306E0,2.0743122E0,1.3846418E1,2.7956596E1,1.0624226E0,1.0502081E0,8.778495E0,5.067923E0,7.225765E0,2.0730831E1,3.4146657E0,5.363829E0,1.7888341E0,3.2790892E0,1.3412651E0,5.8845E0,5.3010154E0,1.5429815E1,1.3749624E0,2.0397034E0,1.005613E0,4.3582163E0,2.2112176E0,1.0678715E0,1.5907758E0,4.2937245E0,3.6758676E0,1.6251477E0,3.715699E0,1.1714117E1],"tree_param":{"num_deleted":"0","num_feature":"5","num_nodes":"33","size_leaf_vector":"1"}},{"base_weights":[-3.1515863E-2,-5.0405055E-1,2.5922593E-2,-1.6315457E-1,-6.9946155E-2,-7.8373685E-2,2.851089E-1,-5.3041138E-2,2.585035E-2,-3.0412972E-1,1.8037026E-1,-1.6490485E-1,5.882704E-1,-4.97116E-1,5.6060612E-2,3.4833738E-1,-3.1374842E-1,3.7172616E-2,-4.73437E-1,7.820355E-3,7.2744024E-1,1.4421448E-2,-6.0616996E-2,-4.6774384E-2,3.554896E-2,4.820607E-2,-3.7541952E-2,4.8225656E-2,-7.168342E-2,-8.1702456E-2,2.6274774E-2,8.449125E-2,1.7200625E-2],"categories":[],"categories_nodes":[],"categories_segments":[],"categories_sizes":[],"default_left":[0,0,0,0,0,0,0,0,0,0,0,0,0,0,0,0,0,0,0,0,0,0,0,0,0,0,0,0,0,0,0,0,0],"id":34,"left_children":[1,3,5,7,-1,9,11,-1,-1,13,15,17,19,21,23,25,27,-1,29,-1,31,-1,-1,-1,-1,-1,-1,-1,-1,-1,-1,-1,-1],"loss_changes":[1.2594573E0,2.2067916E-1,1.154879E0,6.226631E-1,0E0,1.845726E0,1.7664688E0,0E0,0E0,1.1918699E0,1.3470361E0,1.1208186E0,4.7766662E-1,8.5708857E-1,1.2234896E0,1.3040293E0,1.7284536E0,0E0,1.2424321E0,0E0,2.328322E-1,0E0,0E0,0E0,0E0,0E0,0E0,0E0,0E0,0E0,0E0,0E0,0E0],"parents":[2147483647,0,0,1,1,2,2,3,3,5,5,6,6,9,9,10,10,11,11,12,12,13,13,14,14,15,15,16,16,18,18,20,20],"right_children":[2,4,6,8,-1,10,12,-1,-1,14,16,18,20,22,24,26,28,-1,30,-1,32,-1,-1,-1,-1,-1,-1,-1,-1,-1,-1,-1,-1],"split_conditions":[3.1E1,5.7E1,7.4E1,4.5E1,-6.9946155E-2,6.4E1,5.2E1,-5.3041138E-2,2.585035E-2,6.8E1,8.3E1,4.4E1,5.1E1,3.6E1,6.4E1,9.4E1,3.8E1,3.7172616E-2,8.9E1,7.820355E-3,7.4E1,1.4421448E-2,-6.0616996E-2,-4.6774384E-2,3.554896E-2,4.820607E-2,-3.7541952E-2,4.8225656E-2,-7.168342E-2,-8.1702456E-2,2.6274774E-2,8.449125E-2,1.7200625E-2],"split_indices":[2,3,0,3,0,3,1,0,0,1,1,4,2,2,2,3,4,0,4,0,3,0,0,0,0,0,0,0,0,0,0,0,0],"split_type":[0,0,0,0,0,0,0,0,0,0,0,0,0,0,0,0,0,0,0,0,0,0,0,0,0,0,0,0,0,0,0,0,0],"sum_hessian":[4.492169E1,4.025903E0,4.089579E1,2.135477E0,1.8904262E0,2.9658756E1,1.1237034E1,1.0035149E0,1.1319622E0,1.5745382E1,1.3913373E1,4.7065983E0,6.530436E0,1.0004778E1,5.740605E0,1.0603821E1,3.309553E0,1.6434022E0,3.0631962E0,1.7346717E0,4.795764E0,1.407145E0,8.597632E0,1.8835344E0,3.8570704E0,9.232032E0,1.3717887E0,1.046512E0,2.2630408E0,2.0136085E0,1.0495877E0,3.5283542E0,1.2674099E0],"tree_param":{"num_deleted":"0","num_feature":"5","num_nodes":"33","size_leaf_vector":"1"}},{"base_weights":[-3.082531E-2,-4.017983E-1,3.7714414E-2,-1.5932295E-2,-7.622715E-2,6.641471E-1,-1.938174E-2,-5.568696E-2,3.3122367E-1,8.390247E-2,1.7547851E-2,-2.4325813E-1,1.0226692E-1,5.2789796E-2,-6.1922884E-3,-5.434108E-1,1.708732E-1,-2.5160867E-1,2.844594E-1,-1.6731529E-3,-7.316243E-2,-3.8628485E-2,4.4423196E-2,9.590558E-3,-5.7362344E-2,-1.9942595E-2,4.0183973E-2],"categories":[],"categories_nodes":[],"categories_segments":[],"categories_sizes":[],"default_left":[0,0,0,0,0,0,0,0,0,0,0,0,0,0,0,0,0,0,0,0,0,0,0,0,0,0,0],"id":35,"left_children":[1,3,5,7,-1,9,11,-1,13,-1,-1,15,17,-1,-1,19,21,23,25,-1,-1,-1,-1,-1,-1,-1,-1],"loss_changes":[1.166812E0,9.8226106E-1,1.4129559E0,1.0246758E0,0E0,1.346215E-1,1.0283648E0,0E0,2.9189762E-1,0E0,0E0,1.7421622E0,1.6562028E0,0E0,0E0,7.7405334E-1,1.1366581E0,1.0491672E0,1.0283386E0,0E0,0E0,0E0,0E0,0E0,0E0,0E0,0E0],"parents":[2147483647,0,0,1,1,2,2,3,3,5,5,6,6,8,8,11,11,12,12,15,15,16,16,17,17,18,18],"right_children":[2,4,6,8,-1,10,12,-1,14,-1,-1,16,18,-1,-1,20,22,24,26,-1,-1,-1,-1,-1,-1,-1,-1],"split_conditions":[3.4E1,5.4E1,2.4E1,3.6E1,-7.622715E-2,6.9E1,4.5E1,-5.568696E-2,4.9E1,8.390247E-2,1.7547851E-2,7.5E1,5.1E1,5.2789796E-2,-6.1922884E-3,2.5E1,6.2E1,5.3E1,4.7E1,-1.6731529E-3,-7.316243E-2,-3.8628485E-2,4.4423196E-2,9.590558E-3,-5.7362344E-2,-1.9942595E-2,4.0183973E-2],"split_indices":[1,4,4,4,0,2,0,0,2,0,0,4,2,0,0,0,1,1,1,0,0,0,0,0,0,0,0],"split_type":[0,0,0,0,0,0,0,0,0,0,0,0,0,0,0,0,0,0,0,0,0,0,0,0,0,0,0],"sum_hessian":[4.429382E1,6.149145E0,3.8144676E1,3.4743018E0,2.6748435E0,2.298167E0,3.5846508E1,1.1219666E0,2.3523352E0,1.1644791E0,1.1336877E0,1.2268489E1,2.357802E1,1.3394933E0,1.0128419E0,6.932098E0,5.336391E0,7.883928E0,1.5694092E1,2.1117287E0,4.820369E0,1.6204647E0,3.7159264E0,4.129545E0,3.7543828E0,2.9273775E0,1.2766714E1],"tree_param":{"num_deleted":"0","num_feature":"5","num_nodes":"27","size_leaf_vector":"1"}},{"base_weights":[-3.0595142E-2,-4.7688544E-1,2.2920938E-2,-1.3186635E-2,-6.7475855E-2,-7.33208E-2,2.6955885E-1,5.9826104E-3,-7.635872E-2,-1.5033434E-1,5.6195545E-1,-8.7061495E-2,5.517215E-1,2.1175869E-1,-6.1894994E-2,9.146182E-3,6.9299746E-1,-2.3006538E-2,4.567165E-2,5.084013E-3,7.766719E-2,4.147617E-2,-1.494501E-2,8.138474E-2,1.1050448E-2],"categories":[],"categories_nodes":[],"categories_segments":[],"categories_sizes":[],"default_left":[0,0,0,0,0,0,0,0,0,0,0,0,0,0,0,0,0,0,0,0,0,0,0,0,0],"id":36,"left_children":[1,3,5,-1,-1,7,9,11,-1,13,15,17,19,21,-1,-1,23,-1,-1,-1,-1,-1,-1,-1,-1],"loss_changes":[1.073668E0,2.3941743E-1,9.8552424E-1,0E0,0E0,1.6496406E0,1.5128349E0,1.4671501E0,0E0,1.075296E0,3.7246466E-1,2.0289538E0,4.3454158E-1,3.468014E-1,0E0,0E0,2.8858733E-1,0E0,0E0,0E0,0E0,0E0,0E0,0E0,0E0],"parents":[2147483647,0,0,1,1,2,2,5,5,6,6,7,7,9,9,10,10,11,11,12,12,13,13,16,16],"right_children":[2,4,6,-1,-1,8,10,12,-1,14,16,18,20,22,-1,-1,24,-1,-1,-1,-1,-1,-1,-1,-1],"split_conditions":[3.1E1,4E1,7.4E1,-1.3186635E-2,-6.7475855E-2,9.4E1,5.2E1,8.9E1,-7.635872E-2,5.4E1,5.1E1,8.7E1,6E1,7.9E1,-6.1894994E-2,9.146182E-3,9.3E1,-2.3006538E-2,4.567165E-2,5.084013E-3,7.766719E-2,4.147617E-2,-1.494501E-2,8.138474E-2,1.1050448E-2],"split_indices":[2,1,0,0,0,2,1,2,0,3,2,3,1,2,0,0,2,0,0,0,0,0,0,0,0],"split_type":[0,0,0,0,0,0,0,0,0,0,0,0,0,0,0,0,0,0,0,0,0,0,0,0,0],"sum_hessian":[4.349633E1,3.8102431E0,3.968609E1,1.9961312E0,1.8141118E0,2.9052208E1,1.0633881E1,2.6947584E1,2.1046245E0,4.5646772E0,6.0692034E0,2.3740492E1,3.2070928E0,2.8842072E0,1.6804699E0,1.6920434E0,4.37716E0,1.9253958E1,4.4865336E0,1.3739096E0,1.8331832E0,1.7515551E0,1.1326522E0,3.2961311E0,1.0810288E0],"tree_param":{"num_deleted":"0","num_feature":"5","num_nodes":"25","size_leaf_vector":"1"}},{"base_weights":[-2.764477E-2,-3.7948346E-1,3.6647435E-2,-9.722152E-3,-7.4188575E-2,6.1880976E-1,-1.8180188E-2,-5.373755E-2,3.141617E-1,7.907537E-2,1.5557393E-2,-1.4763904E-1,1.6518861E-1,3.8075026E-2,1.1573741E-2,-5.1649505E-1,4.8951566E-2,3.930873E-1,-1.9502737E-1,-1.6955025E-3,-7.034201E-2,1.7105747E-2,-5.2749842E-2,-5.259501E-2,5.7393175E-2,-4.6179373E-2,4.9925424E-2],"categories":[],"categories_nodes":[],"categories_segments":[],"categories_sizes":[],"default_left":[0,0,0,0,0,0,0,0,0,0,0,0,0,0,0,0,0,0,0,0,0,0,0,0,0,0,0],"id":37,"left_children":[1,3,5,7,-1,9,11,-1,13,-1,-1,15,17,-1,-1,19,21,23,25,-1,-1,-1,-1,-1,-1,-1,-1],"loss_changes":[1.0073973E0,9.138783E-1,1.2256318E0,9.2343867E-1,0E0,1.4008856E-1,8.7287974E-1,0E0,4.2268634E-4,0E0,0E0,1.5828273E0,1.3296945E0,0E0,0E0,6.9347334E-1,1.1407707E0,1.9107796E0,1.449823E0,0E0,0E0,0E0,0E0,0E0,0E0,0E0,0E0],"parents":[2147483647,0,0,1,1,2,2,3,3,5,5,6,6,8,8,11,11,12,12,15,15,16,16,17,17,18,18],"right_children":[2,4,6,8,-1,10,12,-1,14,-1,-1,16,18,-1,-1,20,22,24,26,-1,-1,-1,-1,-1,-1,-1,-1],"split_conditions":[3.4E1,5.4E1,2.4E1,3.6E1,-7.4188575E-2,6.9E1,7.5E1,-5.373755E-2,4.3E1,7.907537E-2,1.5557393E-2,4.5E1,9E1,3.8075026E-2,1.1573741E-2,2.5E1,9.3E1,3.1E1,8.6E1,-1.6955025E-3,-7.034201E-2,1.7105747E-2,-5.2749842E-2,-5.259501E-2,5.7393175E-2,-4.6179373E-2,4.9925424E-2],"split_indices":[1,4,4,4,0,2,4,0,4,0,0,0,4,0,0,0,2,3,2,0,0,0,0,0,0,0,0],"split_type":[0,0,0,0,0,0,0,0,0,0,0,0,0,0,0,0,0,0,0,0,0,0,0,0,0,0,0],"sum_hessian":[4.291993E1,5.8736944E0,3.7046234E1,3.4155817E0,2.4581127E0,2.303294E0,3.4742943E1,1.0484099E0,2.367172E0,1.1641589E0,1.139135E0,2.0479332E1,1.426361E1,1.0843941E0,1.2827778E0,6.5543585E0,1.39249735E1,8.680465E0,5.583145E0,2.0817575E0,4.472601E0,1.2071251E1,1.8537227E0,1.1134907E0,7.566974E0,4.2752943E0,1.307851E0],"tree_param":{"num_deleted":"0","num_feature":"5","num_nodes":"27","size_leaf_vector":"1"}},{"base_weights":[-2.750597E-2,-1.7054364E-1,1.2767918E-1,-1.0903179E-2,-4.5129657E-1,-6.68581E-2,2.3697627E-1,-1.7848408E-1,3.8898408E-1,-6.8060905E-1,-2.8978894E-2,-3.019479E-2,6.765866E-1,-6.399429E-1,5.89252E-2,7.9799876E-2,-1.8662676E-2,-2.4699455E-2,-7.902261E-2,-2.360497E-2,2.6266405E-2,2.7307308E-1,-3.506435E-1,8.3391726E-2,7.19508E-3,-1.6335275E-2,-7.467943E-2,7.6499276E-2,-2.406216E-2,-2.198263E-3,6.9659844E-2,2.6638705E-2,-5.5168748E-2],"categories":[],"categories_nodes":[],"categories_segments":[],"categories_sizes":[],"default_left":[0,0,0,0,0,0,0,0,0,0,0,0,0,0,0,0,0,0,0,0,0,0,0,0,0,0,0,0,0,0,0,0,0],"id":38,"left_children":[1,3,5,7,9,-1,11,13,15,17,19,21,23,25,27,-1,-1,-1,-1,-1,-1,29,31,-1,-1,-1,-1,-1,-1,-1,-1,-1,-1],"loss_changes":[9.884308E-1,1.0299273E0,2.0259998E0,1.1245037E0,7.884263E-1,0E0,2.3233392E0,1.3282872E0,1.3176215E0,5.9770584E-2,3.0242428E-1,1.3739696E0,6.4913154E-1,8.609235E-2,2.0228796E0,0E0,0E0,0E0,0E0,0E0,0E0,9.3001705E-1,9.9460924E-1,0E0,0E0,0E0,0E0,0E0,0E0,0E0,0E0,0E0,0E0],"parents":[2147483647,0,0,1,1,2,2,3,3,4,4,6,6,7,7,8,8,9,9,10,10,11,11,12,12,13,13,14,14,21,21,22,22],"right_children":[2,4,6,8,10,-1,12,14,16,18,20,22,24,26,28,-1,-1,-1,-1,-1,-1,30,32,-1,-1,-1,-1,-1,-1,-1,-1,-1,-1],"split_conditions":[5.8E1,7.1E1,4.2E1,7.8E1,7.2E1,-6.68581E-2,5.7E1,4.1E1,5.4E1,3.4E1,7.5E1,3.4E1,7.5E1,2.7E1,5E1,7.9799876E-2,-1.8662676E-2,-2.4699455E-2,-7.902261E-2,-2.360497E-2,2.6266405E-2,2.9E1,6.5E1,8.3391726E-2,7.19508E-3,-1.6335275E-2,-7.467943E-2,7.6499276E-2,-2.406216E-2,-2.198263E-3,6.9659844E-2,2.6638705E-2,-5.5168748E-2],"split_indices":[1,2,2,3,4,0,0,4,4,4,0,0,3,4,4,0,0,0,0,0,0,0,1,0,0,0,0,0,0,0,0,0,0],"split_type":[0,0,0,0,0,0,0,0,0,0,0,0,0,0,0,0,0,0,0,0,0,0,0,0,0,0,0,0,0,0,0,0,0],"sum_hessian":[4.2548313E1,2.2089214E1,2.0459099E1,1.4744244E1,7.34497E0,1.8517174E0,1.8607382E1,1.0780232E1,3.964012E0,4.3638544E0,2.9811156E0,1.2152857E1,6.4545245E0,3.0861242E0,7.694108E0,2.0914962E0,1.8725159E0,1.5370324E0,2.8268223E0,1.8548006E0,1.126315E0,6.3197665E0,5.833091E0,4.8208885E0,1.6336359E0,1.0283136E0,2.0578105E0,1.8290306E0,5.865077E0,4.283614E0,2.0361524E0,1.3536234E0,4.4794674E0],"tree_param":{"num_deleted":"0","num_feature":"5","num_nodes":"33","size_leaf_vector":"1"}},{"base_weights":[-2.5829328E-2,-4.4601887E-1,2.3833284E-2,-8.673982E-3,-6.68577E-2,-3.512233E-2,3.5221472E-1,-1.1625129E-1,3.1716192E-1,-3.0433455E-2,6.733064E-1,-4.3354236E-2,-8.072173E-2,6.6951543E-1,-4.1575406E-2,1.5989026E-2,7.782561E-2,-2.521204E-2,1.4865723E-2,9.034274E-2,5.9850286E-3],"categories":[],"categories_nodes":[],"categories_segments":[],"categories_sizes":[],"default_left":[0,0,0,0,0,0,0,0,0,0,0,0,0,0,0,0,0,0,0,0,0],"id":39,"left_children":[1,3,5,-1,-1,7,9,11,13,-1,15,17,-1,19,-1,-1,-1,-1,-1,-1,-1],"loss_changes":[9.0595806E-1,3.086831E-1,7.7358824E-1,0E0,0E0,1.0155759E0,1.4856727E0,1.4038393E0,2.0029697E0,0E0,1.12179995E-1,1.1156329E0,0E0,6.4372253E-1,0E0,0E0,0E0,0E0,0E0,0E0,0E0],"parents":[2147483647,0,0,1,1,2,2,5,5,6,6,7,7,8,8,10,10,11,11,13,13],"right_children":[2,4,6,-1,-1,8,10,12,14,-1,16,18,-1,20,-1,-1,-1,-1,